svm_type c_svc
kernel_type rbf
gamma 0.0909091
nr_class 2
total_sv 1306
rho -0.343767
label 1 0
probA -1.58926
probB -0.409066
nr_sv 668 638
SV
1 1:1 2:-1 3:-1 4:1 5:-1 6:-1 7:-0.75 8:0.6 9:0.818182 11:-1 
1 1:1 2:-1 3:-1 4:1 5:-1 6:-1 7:-1 8:0.4 9:0.232323 11:-1 
1 1:-1 2:-1 3:1 4:1 5:-1 6:-1 7:-1 8:0.6 9:0.333333 11:-1 
1 1:-1 2:-1 3:-1 4:1 5:-1 6:-1 7:-1 8:0.8 9:0.919192 11:-1 
1 1:1 2:-1 3:-1 4:1 5:-1 6:-1 7:-1 8:0.2 9:0.272727 11:-1 
1 1:1 2:-1 3:-1 4:1 5:-1 6:-1 7:-1 9:0.010101 11:-1 
1 1:1 2:-1 3:-1 4:1 5:-1 6:-1 7:-1 8:0.6 9:-0.030303 11:-1 
1 1:1 2:-1 3:-1 4:1 5:-1 6:-0.9 7:-1 8:-0.4 9:-0.191919 11:-1 
1 1:-1 2:-1 3:-1 4:1 5:-1 6:-1 7:-1 8:0.2 9:0.292929 11:-1 
1 1:1 2:-1 3:-1 4:1 5:-1 6:0.64 7:-1 8:-1 9:-1 11:-1 
1 1:-1 2:-1 3:-1 4:1 5:-1 6:-1 7:-1 8:0.4 9:0.79798 11:-1 
1 1:1 2:-1 3:-1 4:1 5:-1 6:-0.06 7:-1 8:-0.4 9:0.212121 11:-1 
0.9987912478682859 1:1 2:-1 3:-1 4:1 5:-1 6:1 7:-1 8:-1 9:-0.171717 11:-1 
1 1:1 2:-1 3:-1 4:1 5:-1 6:-0.78 7:-1 8:0.6 9:0.616162 11:-1 
1 1:1 2:-1 3:-1 4:1 5:-1 6:-1 7:-1 8:0.6 9:0.656566 11:-1 
1 1:1 2:-1 3:-1 4:1 5:-1 6:-1 7:-1 8:0.4 9:0.858586 11:-1 
1 1:1 2:-1 3:-1 4:1 5:-1 6:-1 7:-1 8:0.8 9:0.535354 11:-1 
1 1:1 2:-1 3:-1 4:1 5:-1 6:-1 7:-1 8:0.6 9:0.89899 11:-1 
1 1:1 2:-1 3:1 4:1 5:-1 6:-0.66 7:-1 8:-0.4 9:0.757576 11:-1 
1 1:1 2:-1 3:1 4:1 5:-1 6:-1 7:-1 8:0.2 9:0.858586 11:-1 
1 1:1 2:-1 3:-1 4:1 5:-1 6:-0.3 7:-1 8:-0.4 9:0.232323 11:-1 
1 1:1 2:-1 3:1 4:1 5:-1 6:-0.3 7:-1 8:-0.4 9:0.717172 11:-1 
1 1:1 2:-1 3:-1 4:1 5:-1 6:-1 7:-1 8:0.6 9:1 11:-1 
1 1:1 2:-1 3:-1 4:1 5:-1 6:-1 7:-1 8:0.2 9:0.757576 11:-1 
1 1:1 2:-1 3:-1 4:1 5:-1 6:-1 7:-1 8:0.2 9:0.373737 11:-1 
1 1:-1 2:-1 3:-1 4:1 5:-1 6:-0.9 7:-1 9:0.959596 11:-1 
1 1:1 2:-1 3:1 4:1 5:-1 6:-0.06 7:-1 8:-0.4 9:0.979798 11:-1 
1 1:1 2:-1 3:-1 4:1 5:-1 6:0.52 7:-1 8:-1 9:-1 11:-1 
1 1:1 2:-1 3:-1 4:1 5:-1 6:-1 7:-1 8:0.8 9:0.69697 11:-1 
1 1:1 2:-1 3:1 4:1 5:-1 6:-1 7:-0.75 8:0.4 9:0.959596 11:-1 
1 1:-1 2:-1 3:1 4:1 5:-1 6:-0.9 7:-1 8:-0.4 9:0.959596 11:-1 
1 1:1 2:-1 3:1 4:1 5:-1 6:-1 7:-1 8:0.4 9:1 11:-1 
1 1:-1 2:-1 3:-1 4:1 5:-1 6:-1 7:-1 8:0.4 9:0.858586 11:-1 
1 1:1 2:-1 3:1 4:1 5:-1 6:-0.9 7:-0.75 8:-0.2 9:0.030303 11:-1 
1 1:-1 2:-1 3:-1 4:1 5:-1 6:-1 7:-1 8:0.6 9:0.393939 11:-1 
1 1:1 2:-1 3:1 4:1 5:-1 6:-1 7:-1 8:0.6 9:0.676768 11:-1 
1 1:1 2:-1 3:-1 4:1 5:-1 6:-0.66 7:-1 9:0.252525 11:-1 
1 1:1 2:-1 3:-1 4:1 5:-1 6:-1 7:-1 8:0.6 9:1 11:-1 
1 1:1 2:-1 3:-1 4:1 5:-1 6:-1 7:-1 8:-1 9:0.89899 11:-1 
1 1:1 2:-1 3:1 4:1 5:-1 6:-1 7:0.25 8:0.4 9:1 11:-1 
1 1:1 2:-1 3:1 4:1 5:-1 6:-1 7:-1 8:0.8 9:0.979798 11:-1 
1 1:1 2:-1 3:1 4:1 5:-0.2 6:-0.18 7:-1 8:-1 9:0.0909091 11:1 
1 1:1 2:-1 3:-1 4:1 5:-1 6:-0.9 7:-1 8:-0.2 9:0.131313 11:-1 
1 1:1 2:-1 3:1 4:1 5:-0.6 6:-1 7:-1 8:-1 9:1 11:-1 
1 1:-1 2:-1 3:-1 4:1 5:-1 6:-1 7:-1 8:-0.2 9:-0.010101 11:-1 
1 1:1 2:-1 3:1 4:1 5:-1 6:-1 7:-0.75 8:0.8 9:1 11:-1 
0.8390977932313667 1:1 2:-1 3:-1 4:1 5:1 6:0.76 7:-1 8:-1 9:-0.979798 11:-1 
1 1:1 2:-1 3:-1 4:1 5:-1 6:-1 7:-0.75 8:0.4 9:0.959596 11:-1 
1 1:1 2:-1 3:-1 4:1 5:-1 6:-1 7:-1 8:0.8 9:0.252525 11:-1 
1 1:-1 2:-1 3:1 4:1 5:-1 6:-0.3 7:-1 8:-0.2 9:0.69697 11:-1 
1 1:1 2:-1 3:-1 4:1 5:-1 6:-0.78 7:-1 9:0.575758 11:-1 
1 1:1 2:-1 3:-1 4:1 5:-1 6:-1 7:-1 8:0.4 9:-0.151515 11:-1 
1 1:1 2:-1 3:1 4:1 5:-1 6:-0.9 7:-1 8:-1 9:0.939394 11:-1 
1 1:1 2:-1 3:1 4:1 5:-1 6:-0.9 7:-1 8:0.6 9:1 11:-1 
0.1839990479413582 1:-1 2:-1 3:1 4:1 5:1 6:1 7:0.25 8:-1 9:-1 11:-1 
1 1:1 2:-1 3:-1 4:1 5:-1 6:-0.66 7:-1 8:0.2 9:1 11:-1 
1 1:1 2:-1 3:-1 4:1 5:-1 6:-1 7:-1 8:0.6 9:0.232323 11:-1 
1 1:1 2:-1 3:1 4:1 5:-1 6:-1 7:-1 8:0.4 9:0.515152 11:-1 
1 1:1 2:-1 3:1 4:1 5:-1 6:-0.54 7:-1 8:-0.2 9:0.131313 11:-1 
1 1:1 2:-1 3:1 4:1 5:-1 6:0.04 7:-1 8:-0.4 9:0.474747 11:-1 
1 1:1 2:-1 3:-1 4:1 5:1 6:0.52 7:-1 8:-1 9:-1 11:-1 
1 1:1 2:-1 3:-1 4:1 5:-1 6:-1 7:-1 8:0.6 9:0.959596 11:-1 
1 1:1 2:-1 3:-1 4:1 5:-1 6:-1 7:-1 8:0.2 9:0.616162 11:-1 
1 1:1 2:-1 3:1 4:1 5:-1 6:-1 7:-1 8:0.8 9:0.818182 11:-1 
1 1:1 2:-1 3:1 4:1 5:-1 6:-1 7:-1 8:0.6 9:0.939394 11:-1 
1 1:1 2:-1 3:-1 4:1 5:-1 6:-1 7:-1 8:0.6 9:0.616162 11:-1 
1 1:1 2:-1 3:-1 4:1 5:-1 6:-1 7:-1 9:0.494949 11:-1 
0.1849646404915851 1:1 2:-1 3:-1 4:1 5:-1 6:-1 7:-1 8:-1 9:-0.959596 11:1 
1 1:1 2:-1 3:-1 4:1 5:-1 6:-1 7:-1 9:0.535354 11:-1 
1 1:1 2:-1 3:-1 4:1 5:-1 6:-1 7:-1 8:0.4 9:0.0707071 11:-1 
1 1:1 2:-1 3:1 4:1 5:-1 6:-1 7:-1 9:0.777778 11:-1 
1 1:1 2:-1 3:-1 4:1 5:-1 6:-1 7:-0.75 8:0.2 9:0.151515 11:-1 
1 1:1 2:-1 3:1 4:1 5:-1 6:-0.54 7:-1 8:-0.2 9:0.474747 11:-1 
1 1:1 2:-1 3:-1 4:1 5:-1 6:-1 7:-1 8:0.8 9:0.474747 11:-1 
1 1:1 2:-1 3:-1 4:1 5:-1 6:-1 7:-1 8:0.8 9:0.878788 11:-1 
1 1:1 2:-1 3:-1 4:1 5:1 6:0.64 7:-1 8:-1 9:-1 11:-1 
1 1:1 2:-1 3:1 4:1 5:-1 6:-1 7:-1 8:0.6 9:0.252525 11:-1 
1 1:1 2:-1 3:-1 4:1 5:-1 6:-1 7:-1 9:-0.111111 11:-1 
1 1:1 2:-1 3:-1 4:1 5:-1 6:-1 7:-1 8:0.6 9:1 11:-1 
1 1:1 2:-1 3:-1 4:1 5:-1 6:-1 7:-1 8:0.2 9:0.0909091 11:-1 
1 1:1 2:-1 3:-1 4:1 5:-1 6:-0.3 7:-1 8:-1 9:0.676768 11:-1 
1 1:1 2:-1 3:-1 4:1 5:-1 6:-1 7:-1 8:0.6 9:0.434343 11:-1 
1 1:-1 2:-1 3:-1 4:1 5:-1 6:-0.9 7:-1 8:-0.2 9:0.979798 11:-1 
1 1:1 2:-1 3:-1 4:1 5:-1 6:-0.42 7:-1 8:-0.4 9:-0.373737 11:-1 
1 1:1 2:-1 3:-1 4:1 5:-1 6:-0.66 7:-1 8:-0.2 9:-0.191919 11:-1 
1 1:-1 2:-1 3:-1 4:1 5:-1 6:-0.54 7:-1 8:-0.2 9:-0.131313 11:-1 
1 1:1 2:-1 3:1 4:1 5:-1 6:-1 7:-1 8:0.6 9:0.616162 11:-1 
1 1:1 2:-1 3:1 4:1 5:-1 6:-1 7:-1 8:0.8 9:1 11:-1 
1 1:1 2:-1 3:-1 4:1 5:-1 6:-0.78 7:-1 8:-1 9:-0.111111 11:-1 
1 1:1 2:-1 3:-1 4:1 5:-1 6:-1 7:-1 8:0.4 9:0.878788 11:-1 
1 1:-1 2:-1 3:1 4:1 5:-1 6:0.28 7:-1 8:-0.4 9:-1 11:-1 
1 1:-1 2:-1 3:1 4:1 5:-1 6:-0.06 7:-1 8:-0.4 9:0.575758 11:-1 
1 1:1 2:-1 3:1 4:1 5:-1 6:-0.54 7:-1 9:0.414141 11:-1 
1 1:1 2:-1 3:-1 4:1 5:-1 6:0.76 7:-1 8:-1 9:-1 11:-1 
1 1:1 2:-1 3:1 4:1 5:-1 6:-1 7:-1 8:1 9:1 11:-1 
1 1:-1 2:-1 3:-1 4:1 5:-1 6:-0.9 7:-1 8:0.6 9:0.151515 11:-1 
1 1:1 2:-1 3:-1 4:1 5:-1 6:-0.9 7:-1 8:0.4 9:0.111111 11:-1 
1 1:1 2:-1 3:-1 4:1 5:-1 6:-1 7:-1 8:0.4 9:0.575758 11:-1 
1 1:1 2:-1 3:1 4:1 5:-1 6:0.64 7:-1 8:-1 9:-1 11:-1 
1 1:1 2:-1 3:1 4:1 5:-1 6:-1 7:-1 8:0.6 9:0.212121 11:-1 
1 1:1 2:-1 3:-1 4:1 5:-1 6:-0.78 7:-1 8:-0.4 9:0.151515 11:-1 
1 1:-1 2:-1 3:1 4:1 5:-1 6:-0.42 7:-1 8:-0.2 9:0.232323 11:-1 
1 1:1 2:-1 3:1 4:1 5:-1 6:-0.9 7:-0.75 9:0.818182 11:-1 
1 1:1 2:-1 3:-1 4:1 5:-1 6:-0.18 7:-1 8:-0.4 9:-0.59596 11:-1 
1 1:1 2:-1 3:-1 4:1 5:-1 6:-0.06 7:-1 9:0.575758 11:-1 
1 1:1 2:-1 3:1 4:1 5:-1 6:-1 7:-1 8:0.2 9:0.373737 11:-1 
1 1:1 2:-1 3:-1 4:1 5:-1 6:-1 7:-0.75 8:0.2 9:0.979798 11:-1 
0.508320885417902 1:1 2:-1 3:-1 4:1 5:-1 6:0.52 7:-1 8:-0.4 9:-0.333333 11:-1 
1 1:1 2:-1 3:-1 4:1 5:-1 6:0.64 7:-1 8:-1 9:-0.919192 11:-1 
1 1:-1 2:-1 3:1 4:1 5:-1 6:-0.54 7:-1 8:-0.2 9:1 11:-1 
1 1:-1 2:-1 3:1 4:1 5:-1 6:-0.66 7:-1 9:0.818182 11:-1 
1 1:1 2:-1 3:1 4:1 5:-1 6:-0.66 7:-1 8:0.2 9:0.717172 11:-1 
1 1:1 2:-1 3:-1 4:1 5:-1 6:-1 7:-1 8:0.6 9:0.919192 11:-1 
1 1:1 2:-1 3:1 4:1 5:-0.2 6:-1 7:-1 8:1 9:1 11:-1 
1 1:1 2:-1 3:-1 4:1 5:-1 6:-0.42 7:-1 8:-1 9:-0.535354 11:-1 
1 1:1 2:-1 3:1 4:1 5:-1 6:-1 7:-1 8:0.4 9:0.232323 11:-1 
1 1:1 2:-1 3:-1 4:1 5:-1 6:-0.78 7:-1 8:0.2 9:0.434343 11:-1 
1 1:1 2:-1 3:1 4:1 5:-1 6:-0.66 7:-1 8:-0.2 9:0.757576 11:-1 
1 1:1 2:-1 3:-1 4:1 5:-1 6:-1 7:-1 8:0.4 9:0.939394 11:-1 
1 1:1 2:-1 3:1 4:1 5:-1 6:-1 7:-1 8:0.8 9:1 11:-1 
1 1:1 2:-1 3:-1 4:1 5:-1 6:-0.3 7:-1 8:-1 9:0.69697 11:-1 
0.7469160043196278 1:1 2:-1 3:-1 4:1 5:1 6:-1 7:-1 8:-1 9:0.030303 11:-1 
1 1:1 2:-1 3:-1 4:1 5:-1 6:-0.66 7:-1 8:-0.2 9:0.959596 11:-1 
1 1:1 2:-1 3:-1 4:1 5:-1 6:-1 7:-1 8:0.2 9:0.959596 11:-1 
1 1:1 2:-1 3:-1 4:1 5:-1 6:-1 7:-1 8:0.4 9:0.979798 11:-1 
1 1:1 2:-1 3:-1 4:1 5:-1 6:-1 7:-1 8:0.8 9:0.434343 11:-1 
0.8025907641229194 1:1 2:-1 3:1 4:1 5:1 6:-1 7:-1 8:-1 9:-0.959596 11:0.333333 
1 1:1 2:-1 3:-1 4:1 5:-1 6:0.4 7:-1 8:-1 9:-0.818182 11:-1 
1 1:1 2:-1 3:1 4:1 5:-1 6:-0.66 7:-1 9:0.232323 11:-1 
1 1:1 2:-1 3:-1 4:1 5:-1 6:-1 7:-1 8:-0.4 9:0.535354 11:-1 
0.004313618752885368 1:-1 2:-1 3:1 4:1 5:-1 6:-1 7:-1 8:-1 9:-0.818182 11:-1 
1 1:1 2:-1 3:-1 4:1 5:-1 6:-1 7:-1 8:0.6 9:1 11:-1 
1 1:1 2:-1 3:1 4:1 5:-1 6:-0.18 7:-0.75 8:-0.4 9:0.414141 11:-1 
1 1:1 2:-1 3:-1 4:1 5:-1 6:0.52 7:-1 8:-1 9:-0.777778 11:-1 
1 1:-1 2:-1 3:1 4:1 5:-1 6:-0.3 7:-1 8:-0.2 9:0.636364 11:-1 
1 1:1 2:-1 3:-1 4:1 5:-1 6:-0.3 7:-1 8:-0.4 9:-0.0505051 11:-1 
1 1:1 2:-1 3:-1 4:1 5:-1 6:-0.9 7:-1 8:0.2 9:-0.010101 11:-1 
1 1:1 2:-1 3:-1 4:1 5:-1 6:-1 7:-0.75 8:0.8 9:1 11:-1 
1 1:1 2:-1 3:1 4:1 5:-1 6:-1 7:-1 8:0.6 9:1 11:-1 
1 1:1 2:-1 3:-1 4:1 5:-1 6:0.88 7:-1 8:-1 9:-1 11:-1 
1 1:1 2:-1 3:-1 4:1 5:-1 6:-0.54 7:-1 9:0.171717 11:-1 
1 1:1 2:-1 3:-1 4:1 5:-1 6:-1 7:-1 8:-1 9:0.939394 11:-1 
1 1:1 2:-1 3:-1 4:1 5:-1 6:-1 7:-1 8:0.6 9:1 11:-1 
1 1:1 2:-1 3:-1 4:1 5:-1 6:-1 7:-1 8:0.6 9:0.959596 11:-1 
1 1:1 2:-1 3:-1 4:1 5:-1 6:-1 7:-1 8:0.8 9:0.939394 11:-1 
1 1:1 2:-1 3:1 4:1 5:-1 6:-1 7:-1 8:0.2 9:0.454545 11:-1 
1 1:1 2:-1 3:-1 4:1 5:-1 6:-0.42 7:-1 8:-1 9:0.151515 11:-1 
1 1:-1 2:-1 3:1 4:1 5:-1 6:-1 7:-1 8:1 9:0.757576 11:-1 
1 1:1 2:-1 3:-1 4:1 5:-1 6:-0.78 7:-1 8:-0.4 9:1 11:-1 
1 1:1 2:-1 3:-1 4:1 5:-1 6:-0.66 7:-1 8:0.4 9:0.474747 11:-1 
1 1:1 2:-1 3:1 4:1 5:-1 6:-1 7:-0.75 8:0.2 9:0.494949 11:-1 
1 1:1 2:-1 3:1 4:1 5:-1 6:-1 7:-1 8:0.4 9:0.939394 11:-1 
1 1:1 2:-1 3:-1 4:1 5:-1 6:-0.66 7:-1 8:-0.2 9:0.838384 11:-1 
1 1:1 2:-1 3:-1 4:1 5:-1 6:-1 7:-1 8:0.8 9:0.959596 11:-1 
1 1:-1 2:-1 3:-1 4:1 5:-1 6:-1 7:-1 8:0.8 9:0.939394 11:-1 
1 1:1 2:-1 3:1 4:1 5:-1 6:-1 7:-1 8:0.2 9:0.232323 11:-1 
1 1:1 2:-1 3:1 4:1 5:-1 6:-1 7:-1 8:0.6 9:-0.131313 11:-1 
1 1:-1 2:-1 3:-1 4:1 5:-1 6:-1 7:-1 8:0.6 9:0.292929 11:-1 
1 1:1 2:-1 3:-1 4:1 5:-1 6:-0.54 7:-1 8:-0.4 9:0.939394 11:-1 
1 1:1 2:-1 3:-1 4:1 5:-1 6:-1 7:-1 8:0.2 9:0.313131 11:-1 
1 1:1 2:-1 3:1 4:1 5:-1 6:-1 7:-1 8:0.6 9:0.979798 11:-1 
1 1:1 2:-1 3:-1 4:1 5:-1 6:-1 7:-1 8:0.4 9:0.555556 11:-1 
1 1:1 2:-1 3:1 4:1 5:-1 6:-1 7:-1 8:0.4 9:0.111111 11:-1 
1 1:1 2:-1 3:-1 4:1 5:-1 6:-1 7:-1 8:0.6 9:0.454545 11:-1 
1 1:1 2:-1 3:-1 4:1 5:-1 6:-1 7:-1 8:0.4 9:0.959596 11:-1 
1 1:1 2:-1 3:1 4:1 5:-1 6:-1 7:-1 8:0.6 9:0.737374 11:-1 
1 1:1 2:-1 3:-1 4:1 5:-1 6:-0.66 7:-1 9:0.919192 11:-1 
1 1:1 2:-1 3:1 4:1 5:-0.2 6:0.04 7:-1 8:-0.4 9:-0.414141 11:-1 
1 1:-1 2:-1 3:-1 4:1 5:-1 6:-1 7:-1 8:0.4 9:0.757576 11:-1 
1 1:1 2:-1 3:-1 4:1 5:-1 6:0.88 7:-1 8:-1 9:-0.979798 11:-1 
1 1:1 2:-1 3:1 4:1 5:-1 6:-1 7:-1 8:0.4 9:0.252525 11:-1 
1 1:1 2:-1 3:-1 4:1 5:-1 6:-1 7:-1 8:0.6 9:0.59596 11:-1 
1 1:1 2:-1 3:-1 4:1 5:-1 6:-1 7:-1 8:0.8 9:0.959596 11:-1 
1 1:1 2:-1 3:1 4:1 5:-1 6:-1 7:-1 8:0.6 9:0.555556 11:-1 
1 1:1 2:-1 3:-1 4:1 5:-1 6:-1 7:-0.75 8:1 9:1 11:-1 
1 1:-1 2:-1 3:-1 4:1 5:-1 6:-0.54 7:-1 9:0.474747 11:-1 
1 1:1 2:-1 3:-1 4:1 5:-1 6:-0.9 7:-1 8:0.6 9:0.353535 11:-1 
1 1:1 2:-1 3:1 4:1 5:-1 6:-1 7:-1 8:-1 9:1 11:-1 
1 1:1 2:-1 3:-1 4:1 5:-1 6:-0.66 7:-1 8:-0.4 9:0.757576 11:-1 
1 1:-1 2:-1 3:1 4:1 5:-1 6:-1 7:-0.75 8:0.2 9:0.777778 11:-1 
1 1:1 2:-1 3:-1 4:1 5:-1 6:-1 7:-1 8:0.4 9:0.010101 11:-1 
1 1:1 2:-1 3:-1 4:1 5:-1 6:-0.66 7:-1 8:0.2 9:1 11:-1 
1 1:1 2:-1 3:-1 4:1 5:-1 6:-1 7:-1 8:-0.4 9:0.959596 11:-1 
1 1:1 2:-1 3:-1 4:1 5:-1 6:-0.54 7:-1 8:-1 9:0.232323 11:-1 
1 1:1 2:-1 3:-1 4:1 5:-1 6:-1 7:-1 8:0.6 9:0.818182 11:-1 
1 1:1 2:-1 3:-1 4:1 5:-1 6:-1 7:-1 8:-1 9:0.414141 11:-1 
1 1:1 2:-1 3:-1 4:1 5:-1 6:0.28 7:-1 8:-1 9:-1 11:-1 
1 1:1 2:-1 3:1 4:1 5:-1 6:-0.54 7:-1 8:-0.2 9:0.959596 11:-1 
0.3822067982491034 1:-1 2:-1 3:1 4:1 5:-1 6:-1 7:-1 8:-1 9:-0.959596 11:1 
1 1:1 2:-1 3:-1 4:1 5:-1 6:-0.3 7:-0.75 8:-0.4 9:0.676768 11:-1 
1 1:1 2:-1 3:-1 4:1 5:-1 6:-1 7:-1 8:0.6 9:0.717172 11:-1 
1 1:1 2:-1 3:1 4:1 5:-1 6:-1 7:-1 8:0.8 9:0.979798 11:-1 
1 1:1 2:-1 3:1 4:1 5:-1 6:-1 7:-1 8:0.8 9:0.191919 11:-1 
1 1:1 2:-1 3:1 4:1 5:-1 6:-1 7:-1 8:0.6 9:0.919192 11:-1 
1 1:-1 2:-1 3:1 4:1 5:-1 6:-0.66 7:-1 8:0.6 9:0.0909091 11:-1 
1 1:1 2:-1 3:1 4:1 5:-1 6:-0.18 7:-1 8:-0.2 9:-0.0909091 11:-1 
1 1:-1 2:-1 3:1 4:1 5:-1 6:-0.66 7:-1 8:-0.4 9:0.89899 11:-1 
1 1:1 2:-1 3:-1 4:1 5:-0.6 6:-1 7:-1 8:-1 9:1 11:-1 
1 1:1 2:-1 3:1 4:1 5:-1 6:-0.9 7:-1 9:0.111111 11:-1 
1 1:1 2:-1 3:1 4:1 5:-1 6:0.52 7:-1 8:-1 9:-1 11:-1 
0.6831405624773609 1:-1 2:-1 3:1 4:1 5:-1 6:1 7:-1 8:-1 9:-1 11:1 
0.07942653689712921 1:1 2:-1 3:1 4:1 5:-1 6:1 7:-1 8:-1 9:-1 11:-1 
1 1:1 2:-1 3:-1 4:1 5:-1 6:-1 7:-1 8:1 9:0.959596 11:-1 
1 1:1 2:-1 3:-1 4:1 5:-1 6:-0.54 7:-1 9:0.494949 11:-1 
1 1:-1 2:-1 3:-1 4:1 5:-1 6:-0.54 7:-1 8:-0.2 9:0.939394 11:-1 
1 1:1 2:-1 3:-1 4:1 5:-1 6:-0.54 7:-1 8:-0.4 9:0.414141 11:-1 
1 1:1 2:-1 3:1 4:1 5:-1 6:0.04 7:-1 8:-0.4 9:-0.111111 11:-1 
1 1:1 2:-1 3:1 4:1 5:-1 6:-1 7:-1 8:-1 9:-0.919192 11:-1 
1 1:1 2:-1 3:-1 4:1 5:-1 6:-1 7:-1 8:0.6 9:0.333333 11:-1 
1 1:1 2:-1 3:-1 4:1 5:-1 6:-1 7:-1 8:0.8 9:0.59596 11:-1 
1 1:-1 2:-1 3:1 4:1 5:-1 6:-1 7:-1 8:0.6 9:0.979798 11:-1 
1 1:1 2:-1 3:-1 4:1 5:-1 6:-1 7:-1 8:0.8 9:0.69697 11:-1 
1 1:1 2:-1 3:1 4:1 5:-1 6:-0.54 7:-1 8:0.2 9:0.838384 11:-1 
1 1:1 2:-1 3:-1 4:1 5:-1 6:-0.66 7:-1 8:-0.4 9:0.313131 11:-1 
1 1:1 2:-1 3:-1 4:1 5:-1 6:-0.42 7:-0.75 8:-0.4 9:-0.0909091 11:-1 
1 1:1 2:-1 3:-1 4:1 5:-1 6:-1 7:-1 8:0.8 9:1 11:-1 
1 1:1 2:-1 3:1 4:1 5:-1 6:-1 7:-1 8:0.4 9:0.111111 11:-1 
1 1:1 2:-1 3:1 4:1 5:-1 6:-0.54 7:-1 8:0.2 9:0.959596 11:-1 
1 1:1 2:-1 3:-1 4:1 5:-1 6:-0.3 7:-1 8:-0.4 9:0.575758 11:-1 
1 1:1 2:-1 3:-1 4:1 5:-1 6:-1 7:-1 8:0.4 9:0.919192 11:-1 
1 1:-1 2:-1 3:1 4:1 5:-1 6:-1 7:-1 8:0.6 9:0.757576 11:-1 
1 1:1 2:-1 3:1 4:1 5:-1 6:-1 7:-1 8:0.8 9:0.373737 11:-1 
1 1:1 2:-1 3:1 4:1 5:-1 6:-1 7:-1 8:0.8 9:0.939394 11:-1 
1 1:1 2:-1 3:-1 4:1 5:-1 6:-0.66 7:-1 8:0.4 9:0.0909091 11:-1 
1 1:-1 2:-1 3:-1 4:1 5:-1 6:-1 7:-1 9:0.858586 11:-1 
1 1:1 2:-1 3:-1 4:1 5:-1 6:0.16 7:-1 8:-1 9:-0.757576 11:-1 
1 1:-1 2:-1 3:-1 4:1 5:-1 6:-1 7:-1 8:0.6 9:0.89899 11:-1 
1 1:-1 2:-1 3:-1 4:1 5:-0.2 6:-1 7:-1 8:0.6 9:1 11:-1 
1 1:1 2:-1 3:-1 4:1 5:-1 6:-0.66 7:-1 8:0.2 9:0.959596 11:-1 
1 1:1 2:-1 3:1 4:1 5:-1 6:-0.66 7:-1 8:-0.2 9:0.59596 11:-1 
1 1:1 2:-1 3:1 4:1 5:-1 6:-0.9 7:-1 8:0.2 9:-0.0707071 11:-1 
0.8260979524271053 1:1 2:-1 3:-1 4:1 5:-1 6:-1 7:-0.75 8:-1 9:0.959596 11:-1 
1 1:1 2:-1 3:1 4:1 5:-1 6:-0.9 7:-1 8:-0.2 9:0.313131 11:-1 
1 1:1 2:-1 3:1 4:1 5:-1 6:0.16 7:-1 8:-0.4 9:-0.030303 11:-1 
1 1:1 2:-1 3:1 4:1 5:-1 6:-1 7:-1 8:0.6 9:0.010101 11:-1 
1 1:1 2:-1 3:-1 4:1 5:-1 6:-1 7:-1 9:0.272727 11:-1 
1 1:1 2:-1 3:-1 4:1 5:-1 6:-1 7:-1 8:0.4 9:0.010101 11:-1 
1 1:1 2:-1 3:1 4:1 5:-1 6:-1 7:-0.75 8:0.6 9:0.979798 11:-1 
1 1:1 2:-1 3:-1 4:1 5:-1 6:-0.18 7:-1 8:-0.2 9:0.757576 11:-1 
1 1:1 2:-1 3:1 4:1 5:-1 6:-1 7:-1 8:0.4 9:1 11:-1 
1 1:1 2:-1 3:1 4:1 5:-1 6:-1 7:-1 8:0.8 9:0.979798 11:-1 
1 1:1 2:-1 3:-1 4:1 5:-1 6:-0.9 7:-1 8:0.6 9:0.757576 11:-1 
1 1:1 2:-1 3:-1 4:1 5:-0.6 6:-1 7:-1 8:-1 9:0.959596 11:-1 
1 1:-1 2:-1 3:1 4:1 5:-1 6:-0.9 7:-1 8:-0.4 9:0.535354 11:-1 
1 1:1 2:-1 3:-1 4:1 5:-1 6:-0.66 7:-1 8:0.4 9:1 11:-1 
1 1:-1 2:-1 3:1 4:1 5:-1 6:-1 7:-0.75 9:0.838384 11:-1 
1 1:1 2:-1 3:-1 4:1 5:-1 6:-0.42 7:-1 8:-1 9:0.979798 11:-1 
1 1:1 2:-1 3:1 4:1 5:-1 6:-1 7:-1 8:0.2 9:0.878788 11:-1 
1 1:1 2:-1 3:1 4:1 5:-1 6:-0.66 7:-1 8:0.2 9:0.292929 11:-1 
1 1:1 2:-1 3:-1 4:1 5:-1 6:-0.42 7:-1 8:-1 9:0.353535 11:-1 
1 1:1 2:-1 3:-1 4:1 5:-1 6:-0.54 7:-1 8:-0.2 9:0.535354 11:-1 
1 1:1 2:-1 3:1 4:1 5:-1 6:0.16 7:-1 8:-0.2 9:0.838384 11:-1 
1 1:1 2:-1 3:1 4:1 5:-1 6:-0.9 7:-1 8:-0.4 9:0.0505051 11:-1 
1 1:1 2:-1 3:1 4:1 5:-1 6:-1 7:-1 8:0.6 9:0.515152 11:-1 
1 1:1 2:-1 3:1 4:1 5:-1 6:-1 7:-1 9:0.939394 11:-1 
1 1:1 2:-1 3:-1 4:1 5:-1 6:-0.9 7:-1 8:0.6 9:0.434343 11:-1 
1 1:1 2:-1 3:-1 4:1 5:-1 6:-0.9 7:-1 9:0.636364 11:-1 
1 1:1 2:-1 3:1 4:1 5:-1 6:-1 7:-1 8:0.6 9:0.393939 11:-1 
1 1:1 2:-1 3:1 4:1 5:-1 6:-1 7:-1 8:0.8 9:0.939394 11:-1 
1 1:1 2:-1 3:-1 4:1 5:-1 6:-1 7:-1 8:-1 9:-0.919192 11:-1 
1 1:-1 2:-1 3:1 4:1 5:-1 6:-1 7:-0.75 8:0.2 9:0.434343 11:-1 
1 1:1 2:-1 3:-1 4:1 5:0.6 6:-1 7:-1 8:0.8 9:0.191919 11:-1 
1 1:1 2:-1 3:-1 4:1 5:-1 6:-1 7:-1 8:0.4 9:0.858586 11:-1 
1 1:1 2:-1 3:1 4:1 5:-1 6:-0.66 7:-1 8:-0.4 9:0.737374 11:-1 
1 1:1 2:-1 3:1 4:1 5:-1 6:-1 7:-1 8:0.8 9:0.474747 11:-1 
1 1:-1 2:-1 3:1 4:1 5:-0.2 6:-1 7:-1 8:0.8 9:0.737374 11:-1 
1 1:1 2:-1 3:1 4:1 5:-1 6:-1 7:-1 8:-0.2 9:0.878788 11:-1 
1 1:1 2:-1 3:1 4:1 5:-0.2 6:-1 7:-1 8:-1 9:0.878788 11:-1 
1 1:1 2:-1 3:-1 4:1 5:-1 6:-0.42 7:-1 9:0.89899 11:-1 
1 1:1 2:-1 3:1 4:1 5:-1 6:-0.9 7:-1 8:-0.4 9:1 11:-1 
0.4433888758431806 1:1 2:-1 3:-1 4:1 5:-1 6:1 7:-1 8:-1 9:-1 11:-1 
1 1:1 2:-1 3:-1 4:1 5:-1 6:-1 7:-1 8:0.8 9:0.939394 11:-1 
1 1:1 2:-1 3:-1 4:1 5:-0.2 6:-1 7:-1 8:0.4 9:0.717172 11:-1 
1 1:1 2:-1 3:-1 4:1 5:-1 6:0.76 7:-1 8:-1 9:-1 11:-1 
1 1:1 2:-1 3:1 4:1 5:-1 6:-1 7:-1 8:0.4 9:0.333333 11:-1 
1 1:1 2:-1 3:-1 4:1 5:-1 6:-0.54 7:-1 8:-0.2 9:0.111111 11:-1 
1 1:-1 2:-1 3:-1 4:1 5:-1 6:-1 7:-1 9:1 11:-1 
1 1:1 2:-1 3:-1 4:1 5:-1 6:-1 7:-1 8:0.6 9:0.939394 11:-1 
1 1:-1 2:-1 3:1 4:1 5:-1 6:-0.06 7:-1 8:-0.4 9:-0.555556 11:-1 
1 1:1 2:-1 3:-1 4:1 5:-1 6:-1 7:-1 8:-1 9:0.010101 11:-1 
0.6859981458211423 1:1 2:-1 3:-1 4:-1 5:-1 6:-1 7:-1 8:-1 9:-1 11:-1 
1 1:1 2:-1 3:-1 4:1 5:-1 6:-1 7:-1 8:-0.2 9:1 11:-1 
1 1:1 2:-1 3:-1 4:1 5:-1 6:-1 7:-1 9:0.89899 11:-1 
1 1:1 2:-1 3:-1 4:1 5:-1 6:-1 7:-1 8:0.8 9:0.414141 11:-1 
1 1:1 2:-1 3:1 4:1 5:-1 6:-1 7:-0.75 9:0.373737 11:-1 
1 1:1 2:-1 3:-1 4:1 5:-1 6:-1 7:-1 8:0.6 9:0.494949 11:-1 
1 1:1 2:-1 3:1 4:1 5:-1 6:-1 7:-1 8:-1 9:-0.919192 11:-1 
1 1:1 2:-1 3:1 4:1 5:-1 6:-1 7:-0.75 8:0.8 9:0.191919 11:-1 
1 1:1 2:-1 3:-1 4:1 5:-1 6:-1 7:-1 8:0.4 9:0.717172 11:-1 
1 1:1 2:-1 3:-1 4:1 5:-1 6:-1 7:-1 8:0.4 9:1 11:-1 
1 1:-1 2:-1 3:1 4:1 5:-1 6:-1 7:-1 8:0.8 9:0.878788 11:-1 
1 1:1 2:-1 3:-1 4:1 5:-1 6:-0.9 7:-1 8:-0.2 9:0.838384 11:-1 
1 1:1 2:-1 3:-1 4:1 5:-1 6:-0.54 7:-0.75 8:-0.4 9:0.858586 11:-1 
0.1006476449414946 1:1 2:-1 3:1 4:1 5:1 6:-1 7:-1 8:-1 9:-0.959596 11:-1 
0.3759654731226391 1:1 2:-1 3:-1 4:1 5:-0.2 6:0.52 7:-1 8:-1 9:-0.171717 11:1 
0.6265893374907692 1:-1 2:-1 3:-1 4:1 5:1 6:0.76 7:-1 8:-1 9:-1 11:-1 
1 1:1 2:-1 3:1 4:1 5:-1 6:-0.9 7:-1 8:0.2 9:0.939394 11:-1 
1 1:1 2:-1 3:1 4:1 5:-1 6:-1 7:-0.75 8:0.6 9:0.757576 11:-1 
1 1:1 2:-1 3:1 4:1 5:-1 6:-1 7:-1 8:0.4 9:1 11:-1 
1 1:1 2:-1 3:-1 4:1 5:-1 6:-0.3 7:-1 8:-0.2 9:0.151515 11:-1 
1 1:1 2:-1 3:1 4:1 5:-1 6:-0.66 7:-1 8:0.2 9:0.878788 11:-1 
1 1:-1 2:-1 3:1 4:1 5:-1 6:-1 7:-1 9:0.515152 11:-1 
1 1:1 2:-1 3:-1 4:1 5:-1 6:0.28 7:-1 8:-0.4 9:-0.636364 11:-1 
1 1:1 2:-1 3:1 4:1 5:-1 6:-0.66 7:-1 9:0.414141 11:-1 
1 1:1 2:-1 3:-1 4:1 5:-1 6:-0.9 7:-1 8:-1 9:0.737374 11:-1 
1 1:1 2:-1 3:1 4:1 5:-1 6:-0.9 7:-1 9:0.676768 11:-1 
1 1:1 2:-1 3:-1 4:-1 5:-1 6:-1 7:-1 8:-1 9:-1 11:-1 
1 1:1 2:-1 3:-1 4:1 5:-1 6:-0.42 7:-1 8:-1 9:0.555556 11:-1 
1 1:1 2:-1 3:-1 4:-1 5:-1 6:-1 7:-1 8:-1 9:-1 11:-1 
0.8686716770490742 1:1 2:-1 3:1 4:1 5:-1 6:0.64 7:-1 8:-1 9:-0.939394 11:-1 
1 1:1 2:-1 3:-1 4:-1 5:-1 6:-1 7:-1 8:-1 9:-1 11:-1 
1 1:1 2:-1 3:-1 4:1 5:-1 6:-1 7:-1 8:0.6 9:0.89899 11:-1 
0.1205302969380969 1:-1 2:-1 3:1 4:1 5:1 6:1 7:-1 8:-1 9:-0.59596 11:1 
1 1:1 2:-1 3:-1 4:-1 5:-1 6:-1 7:-1 8:-1 9:-1 11:-1 
1 1:-1 2:-1 3:-1 4:1 5:-1 6:-1 7:-1 8:0.6 9:0.474747 11:-1 
1 1:1 2:-1 3:1 4:1 5:-1 6:-1 7:-1 8:0.6 9:0.737374 11:-1 
1 1:1 2:-1 3:-1 4:-1 5:-1 6:-1 7:-1 8:-1 9:-1 11:-1 
1 1:1 2:-1 3:-1 4:-1 5:-1 6:-1 7:-1 8:-1 9:-1 11:-1 
1 1:1 2:-1 3:1 4:1 5:-1 6:-1 7:-1 8:0.6 9:0.616162 11:-1 
1 1:1 2:-1 3:-1 4:1 5:-1 6:-0.78 7:-1 8:-0.2 9:0.272727 11:-1 
1 1:1 2:-1 3:1 4:1 5:-1 6:-1 7:-1 8:0.8 9:0.69697 11:-1 
1 1:1 2:-1 3:-1 4:-1 5:-1 6:-1 7:-1 8:-1 9:-1 11:-1 
1 1:1 2:-1 3:-1 4:1 5:-1 6:-1 7:-1 8:0.2 9:0.0707071 11:-1 
1 1:1 2:-1 3:-1 4:1 5:-1 6:0.88 7:-1 8:-1 9:-0.959596 11:-1 
1 1:1 2:-1 3:-1 4:1 5:-1 6:-0.66 7:-1 8:-0.2 9:0.333333 11:-1 
1 1:1 2:-1 3:1 4:1 5:-1 6:-1 7:-0.75 8:0.8 9:0.979798 11:-1 
1 1:-1 2:-1 3:-1 4:1 5:-1 6:-1 7:-1 8:0.4 9:1 11:-1 
1 1:1 2:-1 3:-1 4:-1 5:-1 6:-1 7:-1 8:-1 9:-1 11:-1 
1 1:1 2:-1 3:-1 4:1 5:-1 6:-0.9 7:-1 8:-1 9:0.656566 11:-1 
1 1:1 2:-1 3:1 4:1 5:-1 6:-0.78 7:-1 8:0.2 9:0.636364 11:-1 
1 1:1 2:-1 3:1 4:1 5:-1 6:-0.06 7:-0.75 8:0.2 9:0.979798 11:-1 
1 1:1 2:-1 3:1 4:1 5:-1 6:-1 7:-1 8:0.8 9:0.737374 11:-1 
1 1:1 2:-1 3:-1 4:-1 5:-1 6:-1 7:-1 8:-1 9:-1 11:-1 
1 1:1 2:-1 3:1 4:1 5:-1 6:-1 7:-1 8:0.8 9:0.414141 11:-1 
1 1:1 2:-1 3:-1 4:1 5:-1 6:-1 7:-1 8:0.6 9:0.878788 11:-1 
1 1:1 2:-1 3:-1 4:1 5:-0.6 6:-1 7:-1 8:-1 9:0.515152 11:-1 
1 1:1 2:-1 3:-1 4:1 5:-1 6:-1 7:-1 8:0.8 9:0.575758 11:-1 
1 1:1 2:-1 3:-1 4:1 5:-1 6:-1 7:-1 8:0.6 9:0.616162 11:-1 
1 1:1 2:-1 3:1 4:1 5:-1 6:-0.06 7:-1 8:-0.4 9:-0.111111 11:-1 
1 1:1 2:-1 3:-1 4:1 5:-1 6:-1 7:-1 8:0.4 9:0.171717 11:-1 
1 1:1 2:-1 3:1 4:1 5:-1 6:-1 7:-1 8:0.4 9:0.0909091 11:-1 
1 1:1 2:-1 3:-1 4:1 5:-1 6:-1 7:-1 8:0.2 9:1 11:-1 
1 1:1 2:-1 3:-1 4:1 5:-1 6:-1 7:-1 8:0.4 9:0.454545 11:-1 
1 1:1 2:-1 3:-1 4:1 5:-1 6:0.88 7:-1 8:-1 9:-0.89899 11:-1 
1 1:1 2:-1 3:1 4:1 5:-1 6:-1 7:-1 8:0.6 9:0.111111 11:-1 
1 1:-1 2:-1 3:-1 4:1 5:-1 6:-1 7:-1 8:-0.2 9:0.515152 11:-1 
1 1:1 2:-1 3:1 4:1 5:-1 6:-1 7:-1 8:-0.4 9:0.89899 11:-1 
1 1:-1 2:-1 3:1 4:1 5:-1 6:-1 7:-1 8:-1 9:-0.959596 11:-1 
1 1:1 2:-1 3:1 4:1 5:-1 6:-0.9 7:-1 8:0.4 9:0.515152 11:-1 
1 1:1 2:-1 3:-1 4:1 5:-1 6:-1 7:-1 8:0.8 9:0.474747 11:-1 
1 1:1 2:-1 3:-1 4:-1 5:-1 6:-1 7:-1 8:-1 9:-1 11:-1 
1 1:1 2:-1 3:-1 4:-1 5:-1 6:-1 7:-1 8:-1 9:-1 11:-1 
1 1:-1 2:-1 3:1 4:1 5:-1 6:-1 7:-1 8:0.4 9:0.939394 11:-1 
1 1:1 2:-1 3:-1 4:-1 5:-1 6:-1 7:-1 8:-1 9:-1 11:-1 
0.009090987537420396 1:-1 2:-1 3:-1 4:-1 5:-1 6:-1 7:-1 8:-1 9:-1 11:1 
1 1:1 2:-1 3:-1 4:-1 5:-1 6:-1 7:-1 8:-1 9:-1 11:-1 
0.002868521668021626 1:-1 2:-1 3:-1 4:1 5:-1 6:1 7:-1 8:-1 9:-1 11:-1 
0.9988225970408852 1:1 2:-1 3:-1 4:1 5:1 6:0.52 7:-1 8:-1 9:-1 11:-1 
1 1:1 2:-1 3:-1 4:-1 5:-1 6:-1 7:-1 8:-1 9:-1 11:-1 
1 1:1 2:-1 3:1 4:1 5:-1 6:-1 7:-1 8:0.4 9:0.434343 11:-1 
1 1:1 2:-1 3:1 4:1 5:-1 6:-1 7:-1 8:0.4 9:0.616162 11:-1 
1 1:1 2:-1 3:-1 4:1 5:-1 6:-1 7:-1 8:0.8 9:0.939394 11:-1 
0.01180668689507568 1:1 2:-1 3:1 4:1 5:1 6:1 7:-1 8:-1 9:-1 11:1 
1 1:1 2:-1 3:1 4:1 5:1 6:-1 7:-1 8:-1 9:-0.959596 11:-1 
1 1:1 2:-1 3:-1 4:1 5:-1 6:-0.3 7:-1 8:-0.2 9:1 11:-1 
1 1:1 2:-1 3:-1 4:-1 5:-1 6:-1 7:-1 8:-1 9:-1 11:-1 
1 1:-1 2:-1 3:-1 4:1 5:-0.2 6:-1 7:-0.75 8:0.6 9:1 11:-1 
1 1:1 2:-1 3:-1 4:1 5:-1 6:-0.66 7:-1 8:-0.4 9:0.575758 11:-1 
1 1:1 2:-1 3:-1 4:1 5:-1 6:-1 7:-1 8:0.4 9:0.474747 11:-1 
1 1:1 2:-1 3:-1 4:1 5:-1 6:-1 7:-1 8:0.6 9:0.757576 11:-1 
1 1:1 2:-1 3:-1 4:1 5:-1 6:-0.54 7:-1 9:0.818182 11:-1 
1 1:1 2:-1 3:1 4:1 5:-1 6:-0.3 7:-1 8:-0.4 9:0.434343 11:-1 
1 1:1 2:-1 3:1 4:1 5:-1 6:-0.78 7:-1 9:0.393939 11:-1 
1 1:1 2:-1 3:1 4:1 5:-1 6:-0.78 7:-1 8:-0.4 9:0.515152 11:-1 
0.9460105186641311 1:1 2:-1 3:-1 4:-1 5:-1 6:-1 7:-1 8:-1 9:-1 11:-1 
1 1:1 2:-1 3:-1 4:1 5:-1 6:-1 7:-1 8:-0.2 9:0.515152 11:-1 
0.0777834870830429 1:1 2:-1 3:1 4:-1 5:-1 6:-1 7:-1 8:-1 9:-1 11:-1 
0.07221799142882444 1:-1 2:-1 3:-1 4:-1 5:-1 6:-1 7:-1 8:-1 9:-1 11:-1 
1 1:1 2:-1 3:-1 4:1 5:-1 6:-1 7:-1 8:0.6 9:0.878788 11:-1 
0.005440049049581664 1:-1 2:-1 3:1 4:1 5:1 6:1 7:-1 8:-1 9:-1 11:-1 
1 1:1 2:-1 3:-1 4:1 5:-0.2 6:-0.78 7:-1 9:0.131313 11:-1 
1 1:1 2:-1 3:1 4:1 5:-1 6:-0.9 7:-1 9:0.676768 11:-1 
1 1:1 2:-1 3:1 4:1 5:-1 6:-1 7:-0.75 8:0.8 9:0.959596 11:-1 
0.7563484088504094 1:1 2:-1 3:-1 4:1 5:-1 6:-0.18 7:-1 8:-1 9:0.59596 11:-1 
1 1:1 2:-1 3:-1 4:-1 5:-1 6:-1 7:-1 8:-1 9:-1 11:-1 
1 1:1 2:-1 3:1 4:1 5:-1 6:-0.9 7:-1 9:0.979798 11:-1 
1 1:1 2:-1 3:1 4:1 5:-1 6:-1 7:-1 8:0.4 9:1 11:-1 
0.1024239096377908 1:-1 2:-1 3:-1 4:1 5:-1 6:-0.42 7:-1 8:-0.4 9:0.0707071 11:-1 
1 1:1 2:-1 3:-1 4:1 5:-1 6:-1 7:-1 8:-0.4 9:-0.858586 11:-1 
1 1:1 2:-1 3:-1 4:1 5:-1 6:-1 7:-1 8:0.4 9:0.030303 11:-1 
1 1:1 2:-1 3:-1 4:1 5:-1 6:-1 7:-1 9:0.131313 11:-1 
1 1:1 2:-1 3:-1 4:1 5:-1 6:-0.54 7:-1 8:-0.4 9:0.0707071 11:-1 
1 1:1 2:-1 3:-1 4:-1 5:-1 6:-1 7:-1 8:-1 9:-1 11:-1 
1 1:1 2:-1 3:-1 4:-1 5:-1 6:-1 7:-1 8:-1 9:-1 11:-1 
1 1:1 2:-1 3:1 4:1 5:-1 6:-0.66 7:-0.75 8:0.2 9:1 11:-1 
1 1:1 2:-1 3:-1 4:-1 5:-1 6:-1 7:-1 8:-1 9:-1 11:-1 
1 1:1 2:-1 3:1 4:1 5:-1 6:-1 7:-0.75 8:0.2 9:-0.131313 11:-1 
1 1:1 2:-1 3:1 4:1 5:-1 6:-1 7:-0.75 8:0.4 9:0.939394 11:-1 
1 1:1 2:-1 3:-1 4:1 5:-1 6:-1 7:-1 8:0.4 9:0.959596 11:-1 
1 1:1 2:-1 3:-1 4:1 5:-1 6:-1 7:-1 8:0.8 9:0.777778 11:-1 
0.006312408669745665 1:1 2:-1 3:-1 4:1 5:-1 6:1 7:-1 8:-1 9:-1 11:-1 
1 1:1 2:-1 3:-1 4:1 5:-1 6:0.88 7:-1 8:-1 9:-0.939394 11:-1 
1 1:1 2:-1 3:1 4:1 5:-1 6:-0.3 7:-1 8:-0.2 9:0.555556 11:-1 
1 1:1 2:-1 3:-1 4:1 5:-1 6:-1 7:-1 8:0.6 9:1 11:-1 
1 1:1 2:-1 3:1 4:1 5:-0.2 6:-0.78 7:-1 8:0.4 9:0.030303 11:-1 
0.9665686458182851 1:-1 2:-1 3:1 4:1 5:-1 6:-1 7:-1 8:-1 9:0.777778 11:-1 
1 1:1 2:-1 3:-1 4:1 5:-1 6:-0.78 7:-1 8:-0.2 9:-0.0909091 11:-1 
0.8951121692922416 1:-1 2:-1 3:-1 4:1 5:-1 6:1 7:-1 8:-1 9:-1 11:-1 
1 1:1 2:-1 3:1 4:1 5:-1 6:-0.3 7:-1 8:0.2 9:0.69697 11:-1 
1 1:1 2:-1 3:-1 4:1 5:-1 6:-1 7:-1 8:0.4 9:0.89899 11:-1 
1 1:1 2:-1 3:-1 4:1 5:1 6:0.64 7:-1 8:-1 9:-1 11:-1 
1 1:1 2:-1 3:-1 4:1 5:-1 6:-0.9 7:-0.75 8:-0.2 9:1 11:-1 
1 1:1 2:-1 3:-1 4:-1 5:-1 6:-1 7:-1 8:-1 9:-1 11:-1 
0.4811602485613575 1:-1 2:-1 3:-1 4:1 5:1 6:0.88 7:-1 8:-1 9:-1 11:-1 
1 1:1 2:-1 3:-1 4:1 5:-1 6:-1 7:-1 8:0.6 9:-0.151515 11:-1 
1 1:1 2:-1 3:-1 4:1 5:-1 6:-0.66 7:-1 8:0.4 9:1 11:-1 
1 1:1 2:-1 3:1 4:1 5:-1 6:-0.9 7:-1 8:-0.4 9:0.111111 11:-1 
1 1:1 2:-1 3:-1 4:1 5:-1 6:-1 7:-1 8:0.6 9:0.919192 11:-1 
1 1:1 2:-1 3:-1 4:1 5:-1 6:-1 7:-1 8:-1 9:-0.959596 11:-1 
1 1:1 2:-1 3:1 4:1 5:-1 6:-0.9 7:-0.75 8:-0.4 9:0.878788 11:-1 
1 1:1 2:-1 3:1 4:1 5:-1 6:-1 7:-1 8:0.8 9:1 11:-1 
1 1:1 2:-1 3:1 4:1 5:-1 6:0.52 7:-1 8:-1 9:-0.979798 11:-1 
1 1:1 2:-1 3:1 4:1 5:-1 6:-1 7:-1 8:0.8 9:1 11:-1 
1 1:-1 2:-1 3:1 4:1 5:-1 6:-0.54 7:-1 8:-0.4 9:0.252525 11:-1 
1 1:1 2:-1 3:-1 4:1 5:-1 6:-0.66 7:-1 9:-0.030303 11:-1 
1 1:1 2:-1 3:-1 4:1 5:-1 6:-0.66 7:-1 8:0.8 9:0.252525 11:-1 
1 1:1 2:-1 3:1 4:1 5:-1 6:-0.54 7:-1 8:-0.4 9:-0.010101 11:-1 
0.2396053109153958 1:1 2:-1 3:1 4:1 5:-1 6:-0.06 7:-0.75 8:-1 9:-0.575758 11:1 
1 1:1 2:-1 3:-1 4:-1 5:-1 6:-1 7:-1 8:-1 9:-1 11:-1 
1 1:1 2:-1 3:1 4:1 5:-1 6:-1 7:-1 8:0.4 9:0.919192 11:-1 
1 1:1 2:-1 3:1 4:1 5:-1 6:-0.9 7:-1 9:0.272727 11:-1 
1 1:1 2:-1 3:1 4:1 5:-1 6:-1 7:-0.75 8:0.4 9:0.59596 11:-1 
1 1:1 2:-1 3:-1 4:-1 5:-1 6:-1 7:-1 8:-1 9:-1 11:-1 
0.2799214158904652 1:1 2:-1 3:1 4:1 5:-1 6:1 7:-1 8:-1 9:-1 11:1 
1 1:1 2:-1 3:-1 4:1 5:-1 6:-1 7:-1 8:0.2 9:1 11:-1 
0.8039600812457874 1:1 2:-1 3:-1 4:1 5:-1 6:-1 7:-1 8:-1 9:-0.959596 11:1 
0.9696458600961926 1:1 2:-1 3:1 4:1 5:1 6:1 7:-1 8:-1 9:-1 11:-1 
1 1:1 2:-1 3:-1 4:1 5:-1 6:-1 7:-1 8:0.8 9:-0.030303 11:-1 
1 1:1 2:-1 3:-1 4:1 5:-1 6:-1 7:-1 8:0.8 9:0.171717 11:-1 
1 1:1 2:-1 3:1 4:1 5:-1 6:-1 7:-1 8:0.8 9:0.979798 11:-1 
1 1:1 2:-1 3:1 4:1 5:-1 6:-1 7:-1 8:0.6 9:0.939394 11:-1 
1 1:1 2:-1 3:-1 4:1 5:-1 6:-0.9 7:-1 9:1 11:-1 
1 1:1 2:-1 3:-1 4:1 5:-1 6:-1 7:-0.75 8:0.6 9:0.191919 11:-1 
1 1:1 2:-1 3:-1 4:1 5:-1 6:-1 7:-1 8:0.6 9:0.434343 11:-1 
1 1:1 2:-1 3:1 4:1 5:-1 6:-1 7:-1 8:0.4 9:0.979798 11:-1 
1 1:1 2:-1 3:-1 4:1 5:-1 6:-1 7:-0.75 8:0.4 9:0.979798 11:-1 
1 1:1 2:-1 3:-1 4:1 5:1 6:0.88 7:-1 8:-1 9:-1 11:-1 
1 1:1 2:-1 3:1 4:1 5:-1 6:-1 7:-1 8:0.8 9:0.919192 11:-1 
1 1:1 2:-1 3:-1 4:1 5:-1 6:-1 7:-1 8:0.4 9:1 11:-1 
1 1:-1 2:-1 3:-1 4:1 5:-1 6:-1 7:-1 8:0.8 9:0.959596 11:-1 
1 1:-1 2:-1 3:-1 4:1 5:-1 6:0.88 7:-1 8:-1 9:-1 11:-1 
1 1:1 2:-1 3:-1 4:1 5:-1 6:-1 7:-1 8:0.8 9:0.878788 11:-1 
1 1:1 2:-1 3:1 4:1 5:-1 6:-0.66 7:-1 8:0.4 9:0.494949 11:-1 
0.8447027221928276 1:1 2:-1 3:-1 4:1 5:-1 6:1 7:-1 8:-1 9:-1 11:-1 
1 1:1 2:-1 3:-1 4:-1 5:-1 6:-1 7:-1 8:-1 9:-1 11:-1 
1 1:1 2:-1 3:1 4:1 5:-1 6:-0.78 7:-1 8:0.2 9:0.171717 11:-1 
1 1:1 2:-1 3:-1 4:1 5:-1 6:-0.42 7:-1 8:-1 9:1 11:-1 
1 1:1 2:-1 3:-1 4:1 5:-1 6:-1 7:-1 8:0.4 9:0.434343 11:-1 
1 1:1 2:-1 3:-1 4:-1 5:-1 6:-1 7:-1 8:-1 9:-1 11:-1 
1 1:1 2:-1 3:-1 4:1 5:-1 6:-0.78 7:-1 8:0.2 9:-0.030303 11:-1 
1 1:-1 2:-1 3:-1 4:1 5:-1 6:1 7:-1 8:-1 9:-1 11:-1 
1 1:1 2:-1 3:-1 4:1 5:-1 6:-1 7:-1 8:0.2 9:0.151515 11:-1 
1 1:1 2:-1 3:-1 4:1 5:-1 6:-1 7:-1 8:0.4 9:1 11:-1 
1 1:1 2:-1 3:1 4:1 5:-1 6:-1 7:-1 8:0.4 9:0.191919 11:-1 
1 1:1 2:-1 3:1 4:1 5:-1 6:-1 7:-1 8:0.8 9:0.979798 11:-1 
1 1:1 2:-1 3:-1 4:1 5:-1 6:-0.3 7:-1 8:-0.4 9:-0.535354 11:-1 
1 1:1 2:-1 3:-1 4:1 5:-1 6:-1 7:-1 8:1 9:1 11:-1 
1 1:1 2:-1 3:1 4:1 5:-1 6:-1 7:-1 8:0.8 9:0.959596 11:-1 
1 1:-1 2:-1 3:-1 4:1 5:-1 6:-1 7:-0.25 8:0.2 9:0.151515 11:-1 
1 1:1 2:-1 3:1 4:1 5:-1 6:-1 7:-0.75 8:0.2 9:0.959596 11:-1 
1 1:1 2:-1 3:-1 4:1 5:-1 6:-1 7:-1 8:0.2 9:0.111111 11:-1 
1 1:1 2:-1 3:-1 4:-1 5:-1 6:-1 7:-1 8:-1 9:-1 11:-1 
1 1:1 2:-1 3:1 4:1 5:-1 6:-0.54 7:-1 8:0.2 9:0.858586 11:-1 
1 1:1 2:-1 3:-1 4:-1 5:-1 6:-1 7:-1 8:-1 9:-1 11:-1 
1 1:-1 2:-1 3:-1 4:1 5:-1 6:-0.54 7:-1 8:-0.2 9:1 11:-1 
1 1:1 2:-1 3:-1 4:1 5:-1 6:-0.9 7:-1 8:-0.4 9:0.777778 11:-1 
0.1422464933569241 1:1 2:-1 3:1 4:1 5:-1 6:-0.78 7:-1 8:-1 9:0.878788 11:-1 
1 1:1 2:-1 3:1 4:1 5:-1 6:-1 7:-1 8:0.6 9:0.939394 11:-1 
1 1:1 2:-1 3:-1 4:1 5:-0.2 6:0.4 7:-1 8:-1 9:0.434343 11:1 
0.6783095809296619 1:1 2:-1 3:-1 4:1 5:-0.2 6:0.52 7:-1 8:-1 9:0.717172 11:-1 
1 1:1 2:-1 3:1 4:1 5:-1 6:-1 7:-1 8:0.4 9:0.616162 11:-1 
1 1:1 2:-1 3:-1 4:1 5:-1 6:-1 7:-1 8:0.4 9:0.636364 11:-1 
1 1:1 2:-1 3:-1 4:-1 5:-1 6:-1 7:-1 8:-1 9:-1 11:-1 
1 1:1 2:-1 3:-1 4:1 5:-1 6:-0.66 7:-1 8:0.2 9:0.434343 11:-1 
1 1:1 2:-1 3:1 4:1 5:-1 6:-0.3 7:-1 8:-0.4 9:-0.454545 11:-1 
1 1:1 2:-1 3:-1 4:-1 5:-1 6:-1 7:-1 8:-1 9:-1 11:-1 
1 1:-1 2:-1 3:-1 4:1 5:-1 6:-0.9 7:-1 8:0.4 9:0.232323 11:-1 
1 1:-1 2:-1 3:-1 4:1 5:-1 6:-0.54 7:-1 8:-0.2 9:0.616162 11:-1 
1 1:1 2:-1 3:1 4:1 5:-1 6:-1 7:-1 8:-0.4 9:0.818182 11:-1 
1 1:1 2:-1 3:-1 4:1 5:-1 6:-1 7:-1 8:0.6 9:0.757576 11:-1 
1 1:1 2:-1 3:-1 4:-1 5:-1 6:-1 7:-1 8:-1 9:-1 11:-1 
1 1:1 2:-1 3:-1 4:1 5:-1 6:-1 7:-1 8:0.8 9:0.979798 11:-1 
1 1:1 2:-1 3:1 4:1 5:-1 6:1 7:-1 8:-1 9:-1 11:-1 
1 1:1 2:-1 3:1 4:1 5:-1 6:-1 7:-0.75 8:0.2 9:0.575758 11:-1 
1 1:1 2:-1 3:1 4:1 5:-1 6:-0.18 7:-1 8:-0.2 9:0.636364 11:-1 
1 1:1 2:-1 3:-1 4:1 5:-1 6:1 7:-1 8:-1 9:-1 11:-1 
1 1:1 2:-1 3:1 4:1 5:-1 6:-0.54 7:-1 8:-0.4 9:0.313131 11:-1 
1 1:-1 2:-1 3:1 4:1 5:-1 6:-1 7:-1 8:-1 9:-0.959596 11:-1 
1 1:1 2:-1 3:-1 4:1 5:-1 6:-0.9 7:-1 8:0.2 9:-0.0505051 11:-1 
1 1:-1 2:-1 3:-1 4:1 5:-1 6:1 7:-1 8:-1 9:-1 11:-1 
0.09960182393978209 1:1 2:-1 3:-1 4:1 5:-1 6:0.52 7:1 8:-1 9:-0.979798 11:-1 
1 1:1 2:-1 3:1 4:1 5:-1 6:-1 7:-1 8:0.8 9:0.89899 11:-1 
1 1:1 2:-1 3:1 4:1 5:-1 6:-1 7:-1 8:-0.4 9:0.191919 11:-1 
1 1:1 2:-1 3:-1 4:1 5:-1 6:-1 7:-1 8:0.4 9:0.555556 11:-1 
1 1:1 2:-1 3:1 4:1 5:-1 6:1 7:-1 8:-1 9:-1 11:-1 
0.2881966657195315 1:1 2:-1 3:1 4:1 5:1 6:1 7:-1 8:-1 9:-1 11:1 
1 1:-1 2:-1 3:-1 4:1 5:-1 6:-0.66 7:-1 8:0.2 9:1 11:-1 
1 1:1 2:-1 3:1 4:1 5:-1 6:-0.54 7:-0.75 8:-0.4 9:0.69697 11:-1 
1 1:1 2:-1 3:-1 4:1 5:-1 6:-1 7:-1 8:0.6 9:0.737374 11:-1 
1 1:1 2:-1 3:-1 4:1 5:-1 6:-1 7:-1 8:0.6 9:0.111111 11:-1 
1 1:1 2:-1 3:-1 4:1 5:-1 6:-0.9 7:-1 8:0.4 9:1 11:-1 
1 1:1 2:-1 3:-1 4:1 5:-1 6:-1 7:-1 8:0.8 9:0.272727 11:-1 
1 1:-1 2:-1 3:1 4:1 5:-1 6:-1 7:-1 8:0.6 9:1 11:-1 
1 1:1 2:-1 3:-1 4:1 5:-1 6:-1 7:-1 8:0.8 9:0.414141 11:-1 
0.5805204434876673 1:1 2:-1 3:1 4:-1 5:-1 6:-1 7:-1 8:-1 9:-1 11:-1 
1 1:1 2:-1 3:-1 4:-1 5:-1 6:-1 7:-1 8:-1 9:-1 11:-1 
1 1:-1 2:-1 3:-1 4:1 5:-1 6:1 7:-1 8:-1 9:-1 11:-1 
1 1:1 2:-1 3:-1 4:-1 5:-1 6:-1 7:-1 8:-1 9:-1 11:-1 
0.7440262724653588 1:-1 2:-1 3:-1 4:1 5:-1 6:0.88 7:-1 8:-1 9:-1 11:-1 
1 1:1 2:-1 3:1 4:1 5:1 6:1 7:-1 8:-1 9:-1 11:-1 
1 1:-1 2:-1 3:-1 4:1 5:-1 6:-1 7:-1 8:0.6 9:1 11:-1 
1 1:1 2:-1 3:-1 4:-1 5:-1 6:-1 7:-1 8:-1 9:-1 11:-1 
1 1:-1 2:-1 3:1 4:1 5:-1 6:-1 7:-1 9:0.515152 11:-1 
1 1:1 2:-1 3:1 4:1 5:-1 6:-1 7:-1 8:0.4 9:1 11:-1 
1 1:1 2:-1 3:-1 4:1 5:-1 6:-0.66 7:-1 9:0.959596 11:-1 
1 1:1 2:-1 3:1 4:1 5:-1 6:-0.9 7:-1 8:-0.4 9:0.939394 11:-1 
1 1:1 2:-1 3:-1 4:1 5:1 6:0.64 7:-1 8:-1 9:-1 11:-1 
1 1:1 2:-1 3:1 4:1 5:-1 6:-0.42 7:-1 8:-0.4 9:0.636364 11:-1 
1 1:1 2:-1 3:1 4:1 5:-1 6:-1 7:-1 8:0.8 9:0.757576 11:-1 
1 1:1 2:-1 3:-1 4:1 5:-1 6:0.64 7:-1 8:-1 9:-1 11:-1 
1 1:1 2:-1 3:-1 4:1 5:-1 6:-0.42 7:-1 8:-1 9:0.353535 11:-1 
1 1:1 2:-1 3:-1 4:1 5:-1 6:-0.9 7:-1 9:1 11:-1 
1 1:1 2:-1 3:-1 4:1 5:-1 6:-1 7:-1 8:0.4 9:0.89899 11:-1 
1 1:1 2:-1 3:1 4:1 5:-1 6:-1 7:-1 8:0.6 9:0.979798 11:-1 
1 1:1 2:-1 3:-1 4:1 5:-1 6:0.16 7:-1 8:-0.4 9:-0.555556 11:-1 
1 1:1 2:-1 3:-1 4:1 5:-1 6:1 7:-1 8:-1 9:-1 11:-1 
1 1:1 2:-1 3:-1 4:1 5:-1 6:-0.18 7:-1 8:0.4 9:0.858586 11:-1 
1 1:1 2:-1 3:1 4:1 5:1 6:1 7:-1 8:-1 9:-1 11:-1 
1 1:1 2:-1 3:1 4:-1 5:-1 6:-1 7:-1 8:-1 9:-1 11:-1 
1 1:1 2:-1 3:1 4:1 5:-1 6:-0.66 7:-1 8:-0.2 9:-0.010101 11:-1 
1 1:1 2:-1 3:1 4:1 5:1 6:1 7:-1 8:-1 9:-1 11:-1 
1 1:1 2:-1 3:1 4:-1 5:-1 6:-1 7:-1 8:-1 9:-1 11:-1 
1 1:1 2:-1 3:-1 4:1 5:-1 6:-1 7:-1 8:0.4 9:0.59596 11:-1 
1 1:1 2:-1 3:-1 4:1 5:-1 6:-0.3 7:-1 8:-0.2 9:0.656566 11:-1 
1 1:1 2:-1 3:1 4:-1 5:-1 6:-1 7:-1 8:-1 9:-1 11:-1 
1 1:1 2:-1 3:1 4:-1 5:-1 6:-1 7:-1 8:-1 9:-1 11:-1 
1 1:1 2:-1 3:1 4:1 5:-1 6:1 7:-1 8:-1 9:-1 11:-1 
1 1:1 2:-1 3:-1 4:1 5:-1 6:-0.78 7:-1 9:0.737374 11:-1 
0.1544841345786512 1:1 2:-1 3:-1 4:1 5:1 6:0.88 7:-1 8:-1 9:-1 11:-1 
1 1:1 2:-1 3:-1 4:1 5:-1 6:-0.42 7:-1 8:0.2 9:0.191919 11:-1 
1 1:1 2:-1 3:1 4:-1 5:-1 6:-1 7:-1 8:-1 9:-1 11:-1 
0.202368052249149 1:-1 2:-1 3:-1 4:1 5:1 6:1 7:-1 8:-1 9:-1 11:-1 
1 1:-1 2:-1 3:-1 4:1 5:-1 6:1 7:-1 8:-1 9:-1 11:-1 
1 1:1 2:-1 3:-1 4:1 5:-1 6:-1 7:-1 9:0.292929 11:-1 
1 1:-1 2:-1 3:-1 4:1 5:-1 6:-0.9 7:-1 8:0.2 9:-0.010101 11:-1 
1 1:1 2:-1 3:-1 4:1 5:-1 6:-0.9 7:-1 8:0.4 9:0.636364 11:-1 
1 1:1 2:-1 3:-1 4:1 5:-1 6:-1 7:-1 8:0.2 9:0.191919 11:-1 
1 1:1 2:-1 3:1 4:1 5:-1 6:-1 7:-1 8:-0.2 9:0.0909091 11:-1 
1 1:1 2:-1 3:1 4:-1 5:-1 6:-1 7:-1 8:-1 9:-1 11:-1 
1 1:1 2:-1 3:1 4:-1 5:-1 6:-1 7:-1 8:-1 9:-1 11:-1 
1 1:1 2:-1 3:1 4:1 5:-1 6:-0.66 7:-1 8:-0.4 9:0.353535 11:-1 
1 1:1 2:-1 3:-1 4:1 5:-1 6:-1 7:-1 8:0.4 9:0.717172 11:-1 
1 1:1 2:-1 3:1 4:1 5:-1 6:-1 7:-1 9:1 11:-1 
1 1:1 2:-1 3:1 4:-1 5:-1 6:-1 7:-1 8:-1 9:-1 11:-1 
1 1:1 2:-1 3:-1 4:-1 5:-1 6:-1 7:-1 8:-1 9:-1 11:-1 
1 1:1 2:-1 3:-1 4:1 5:-1 6:-0.9 7:-1 8:-0.4 9:0.979798 11:-1 
1 1:1 2:-1 3:-1 4:-1 5:-1 6:-1 7:-1 8:-1 9:-1 11:-1 
1 1:1 2:-1 3:1 4:-1 5:-1 6:-1 7:-1 8:-1 9:-1 11:-1 
1 1:-1 2:-1 3:-1 4:1 5:1 6:1 7:-1 8:-1 9:-1 11:-1 
1 1:1 2:-1 3:-1 4:-1 5:-1 6:-1 7:-1 8:-1 9:-1 11:-1 
1 1:1 2:-1 3:-1 4:1 5:-1 6:-0.18 7:-1 8:-0.4 9:-0.656566 11:-1 
1 1:-1 2:-1 3:-1 4:1 5:-1 6:-1 7:-1 8:0.4 9:1 11:-1 
0.1127945663887402 1:-1 2:-1 3:-1 4:1 5:1 6:1 7:-1 8:-1 9:-0.878788 11:1 
1 1:1 2:-1 3:1 4:1 5:-1 6:-0.3 7:-1 8:-0.2 9:0.69697 11:-1 
1 1:1 2:-1 3:-1 4:1 5:-1 6:-0.9 7:-1 9:-0.0707071 11:-1 
1 1:1 2:-1 3:1 4:-1 5:-1 6:-1 7:-1 8:-1 9:-1 11:-1 
1 1:1 2:-1 3:-1 4:1 5:-1 6:-1 7:-1 8:0.2 9:0.454545 11:-1 
1 1:1 2:-1 3:-1 4:-1 5:-1 6:-1 7:-1 8:-1 9:-1 11:-1 
1 1:1 2:-1 3:-1 4:1 5:-1 6:-0.9 7:-1 9:0.818182 11:-1 
0.9802103305297633 1:-1 2:-1 3:1 4:1 5:-1 6:0.4 7:-1 8:-0.4 9:-0.59596 11:-1 
1 1:1 2:-1 3:1 4:1 5:-1 6:-1 7:-1 8:0.8 9:0.858586 11:-1 
1 1:1 2:-1 3:1 4:1 5:-1 6:-0.54 7:-1 8:-0.2 9:0.151515 11:-1 
1 1:1 2:-1 3:-1 4:1 5:-1 6:-1 7:-1 8:0.8 9:-0.0909091 11:-1 
1 1:1 2:-1 3:1 4:1 5:-1 6:-0.54 7:-1 8:-0.4 9:0.575758 11:-1 
1 1:1 2:-1 3:1 4:1 5:-1 6:-1 7:-1 8:-1 9:0.979798 11:-1 
1 1:1 2:-1 3:1 4:1 5:-1 6:-1 7:-1 8:0.8 9:0.979798 11:-1 
1 1:-1 2:-1 3:-1 4:1 5:-1 6:-0.9 7:-1 8:-0.4 9:0.757576 11:-1 
1 1:1 2:-1 3:-1 4:1 5:-1 6:-1 7:-1 8:-0.2 9:0.292929 11:-1 
1 1:1 2:-1 3:-1 4:1 5:-1 6:-0.66 7:-1 9:0.0505051 11:-1 
1 1:1 2:-1 3:-1 4:-1 5:-1 6:-1 7:-1 8:-1 9:-1 11:-1 
1 1:1 2:-1 3:-1 4:1 5:-1 6:-0.42 7:-1 8:-1 9:0.515152 11:-1 
1 1:1 2:-1 3:-1 4:1 5:-1 6:-1 7:-1 8:0.4 9:0.454545 11:-1 
1 1:1 2:-1 3:1 4:1 5:-1 6:-1 7:-1 9:0.79798 11:-1 
1 1:1 2:-1 3:-1 4:-1 5:-1 6:-1 7:-1 8:-1 9:-1 11:-1 
1 1:1 2:-1 3:1 4:1 5:1 6:1 7:-1 8:-1 9:-1 11:-1 
1 1:1 2:-1 3:-1 4:1 5:-1 6:-0.66 7:-1 8:-0.4 9:-0.010101 11:-1 
1 1:1 2:-1 3:1 4:-1 5:-1 6:-1 7:-1 8:-1 9:-1 11:-1 
1 1:1 2:-1 3:-1 4:-1 5:-1 6:-1 7:-1 8:-1 9:-1 11:-1 
1 1:1 2:-1 3:-1 4:1 5:-1 6:-1 7:-1 8:0.8 9:0.818182 11:-1 
1 1:1 2:-1 3:-1 4:1 5:-1 6:-1 7:-1 8:0.4 9:1 11:-1 
1 1:1 2:-1 3:-1 4:-1 5:-1 6:-1 7:-1 8:-1 9:-1 11:-1 
1 1:1 2:-1 3:-1 4:1 5:1 6:0.52 7:-1 8:-1 9:-1 11:-1 
1 1:1 2:-1 3:-1 4:1 5:-1 6:-0.18 7:-1 9:1 11:-1 
1 1:1 2:-1 3:-1 4:-1 5:-1 6:-1 7:-1 8:-1 9:-1 11:-1 
1 1:1 2:-1 3:1 4:-1 5:-1 6:-1 7:-1 8:-1 9:-1 11:-1 
1 1:1 2:-1 3:1 4:1 5:-1 6:-0.3 7:-1 8:-0.2 9:0.656566 11:-1 
1 1:1 2:-1 3:-1 4:1 5:-1 6:-1 7:-1 8:0.2 9:0.252525 11:-1 
0.9398548937183335 1:-1 2:-1 3:1 4:-1 5:-1 6:-1 7:-1 8:-1 9:-1 11:-1 
1 1:1 2:-1 3:1 4:1 5:-1 6:-1 7:-1 8:0.4 9:0.959596 11:-1 
0.07633130836475339 1:-1 2:-1 3:-1 4:1 5:-1 6:1 7:-1 8:-1 9:-1 11:1 
1 1:1 2:-1 3:-1 4:1 5:-1 6:0.76 7:-1 8:-1 9:-0.878788 11:-1 
0.05718209079014049 1:-1 2:-1 3:1 4:1 5:-1 6:-1 7:-1 8:-1 9:-0.818182 11:-1 
1 1:1 2:-1 3:-1 4:1 5:-1 6:-1 7:-1 8:0.6 9:0.535354 11:-1 
0.1751616321763536 1:-1 2:-1 3:-1 4:-1 5:-1 6:-1 7:-1 8:-1 9:-1 11:-1 
1 1:1 2:-1 3:-1 4:-1 5:-1 6:-1 7:-1 8:-1 9:-1 11:-1 
1 1:1 2:-1 3:1 4:-1 5:-1 6:-1 7:-1 8:-1 9:-1 11:-1 
1 1:-1 2:-1 3:-1 4:-1 5:-1 6:-1 7:-1 8:-1 9:-1 11:-1 
1 1:1 2:-1 3:1 4:1 5:1 6:1 7:-1 8:-1 9:-1 11:-1 
1 1:1 2:-1 3:-1 4:1 5:-1 6:-1 7:-1 8:0.6 9:0.656566 11:-1 
0.59758734292992 1:-1 2:-1 3:-1 4:1 5:1 6:0.88 7:-1 8:-1 9:-1 11:-1 
1 1:1 2:-1 3:-1 4:1 5:-1 6:-1 7:-1 8:-0.2 9:0.939394 11:-1 
1 1:-1 2:-1 3:-1 4:-1 5:-1 6:-1 7:-1 8:-1 9:-1 11:-1 
1 1:-1 2:-1 3:-1 4:-1 5:-1 6:-1 7:-1 8:-1 9:-1 11:-1 
1 1:1 2:-1 3:-1 4:-1 5:-1 6:-1 7:-1 8:-1 9:-1 11:-1 
1 1:-1 2:-1 3:-1 4:-1 5:-1 6:-1 7:-1 8:-1 9:-1 11:-1 
1 1:1 2:-1 3:-1 4:1 5:-1 6:0.28 7:-1 8:-1 9:-0.979798 11:-1 
0.8573018394295984 1:-1 2:-1 3:1 4:1 5:1 6:1 7:-1 8:-1 9:-1 11:-1 
1 1:-1 2:-1 3:-1 4:-1 5:-1 6:-1 7:-1 8:-1 9:-1 11:-1 
1 1:1 2:-1 3:1 4:1 5:1 6:1 7:-1 8:-1 9:-1 11:-1 
0.0275847187891065 1:-1 2:-1 3:-1 4:-1 5:-1 6:-1 7:-1 8:-1 9:-1 11:1 
0.2923865263561503 1:1 2:-1 3:-1 4:1 5:-1 6:1 7:-1 8:-1 9:-1 11:-1 
1 1:-1 2:-1 3:-1 4:1 5:-1 6:1 7:-1 8:-1 9:-1 11:-1 
1 1:-1 2:-1 3:-1 4:-1 5:-1 6:-1 7:-1 8:-1 9:-1 11:-1 
1 1:1 2:-1 3:-1 4:1 5:-1 6:-1 7:-1 8:0.2 9:0.939394 11:-1 
1 1:1 2:-1 3:-1 4:1 5:-1 6:-0.54 7:-1 8:-0.2 9:0.636364 11:-1 
0.2914512328896581 1:1 2:-1 3:1 4:-1 5:-1 6:-1 7:-1 8:-1 9:-1 11:1 
1 1:-1 2:-1 3:1 4:-1 5:-1 6:-1 7:-1 8:-1 9:-1 11:-1 
1 1:1 2:-1 3:-1 4:1 5:-1 6:-1 7:-1 8:0.6 9:0.79798 11:-1 
1 1:1 2:-1 3:-1 4:1 5:-1 6:-1 7:-1 8:0.6 9:0.494949 11:-1 
1 1:1 2:-1 3:1 4:-1 5:-1 6:-1 7:-1 8:-1 9:-1 11:-1 
1 1:1 2:-1 3:-1 4:1 5:-1 6:-0.9 7:-1 8:0.2 9:0.393939 11:-1 
1 1:-1 2:-1 3:-1 4:-1 5:-1 6:-1 7:-1 8:-1 9:-1 11:-1 
1 1:-1 2:-1 3:-1 4:-1 5:-1 6:-1 7:-1 8:-1 9:-1 11:-1 
1 1:-1 2:-1 3:-1 4:-1 5:-1 6:-1 7:-1 8:-1 9:-1 11:-1 
0.8002454333658683 1:-1 2:-1 3:-1 4:1 5:-1 6:-0.54 7:-0.75 8:-0.2 9:0.858586 11:-1 
1 1:1 2:-1 3:1 4:1 5:-1 6:-0.66 7:-1 8:-0.2 9:0.838384 11:-1 
1 1:1 2:-1 3:-1 4:1 5:-1 6:-1 7:-1 8:0.4 9:0.232323 11:-1 
1 1:1 2:-1 3:-1 4:1 5:-1 6:-1 7:-1 8:0.6 9:0.818182 11:-1 
0.02762904100895815 1:-1 2:-1 3:-1 4:1 5:-1 6:0.88 7:-1 8:-1 9:-1 11:-1 
1 1:1 2:-1 3:-1 4:-1 5:-1 6:-1 7:-1 8:-1 9:-1 11:-1 
1 1:1 2:-1 3:-1 4:1 5:-1 6:-1 7:-1 8:0.2 9:0.555556 11:-1 
0.7497479411005304 1:-1 2:-1 3:1 4:-1 5:-1 6:-1 7:-1 8:-1 9:-1 11:-1 
1 1:1 2:-1 3:-1 4:1 5:-1 6:-0.66 7:-1 8:-0.2 9:0.717172 11:-1 
1 1:1 2:-1 3:-1 4:-1 5:-1 6:-1 7:-1 8:-1 9:-1 11:-1 
1 1:1 2:-1 3:-1 4:-1 5:-1 6:-1 7:-1 8:-1 9:-1 11:-1 
1 1:-1 2:-1 3:-1 4:-1 5:-1 6:-1 7:-1 8:-1 9:-1 11:-1 
1 1:-1 2:-1 3:-1 4:-1 5:-1 6:-1 7:-1 8:-1 9:-1 11:-1 
1 1:1 2:-1 3:-1 4:-1 5:-1 6:-1 7:-1 8:-1 9:-1 11:-1 
1 1:1 2:-1 3:-1 4:-1 5:-1 6:-1 7:-1 8:-1 9:-1 11:-1 
1 1:-1 2:-1 3:-1 4:-1 5:-1 6:-1 7:-1 8:-1 9:-1 11:-1 
1 1:-1 2:-1 3:-1 4:-1 5:-1 6:-1 7:-1 8:-1 9:-1 11:-1 
1 1:-1 2:-1 3:-1 4:-1 5:-1 6:-1 7:-1 8:-1 9:-1 11:-1 
1 1:-1 2:-1 3:-1 4:-1 5:-1 6:-1 7:-1 8:-1 9:-1 11:-1 
1 1:-1 2:-1 3:-1 4:-1 5:-1 6:-1 7:-1 8:-1 9:-1 11:-1 
1 1:1 2:-1 3:1 4:1 5:-1 6:-1 7:-1 8:0.4 9:0.939394 11:-1 
1 1:1 2:-1 3:1 4:1 5:-0.2 6:-0.66 7:-1 8:-0.4 9:1 11:-1 
1 1:1 2:-1 3:1 4:1 5:-1 6:-0.78 7:-1 8:0.4 9:0.818182 11:-1 
0.2011440128424055 1:1 2:-1 3:-1 4:-1 5:-1 6:-1 7:-1 8:-1 9:-1 11:-1 
-1 1:1 2:-1 3:1 4:-1 5:-1 6:-1 7:-1 8:-1 9:-1 11:-1 
-1 1:1 2:-1 3:-1 4:1 5:-1 6:-1 7:-1 8:0.4 9:0.0707071 11:-1 
-1 1:1 2:-1 3:-1 4:1 5:-1 6:-1 7:-1 8:0.6 9:0.474747 11:-1 
-1 1:1 2:-1 3:1 4:1 5:-1 6:-1 7:-0.75 8:0.4 9:0.818182 11:-1 
-1 1:1 2:-1 3:-1 4:-1 5:-1 6:-1 7:-1 8:-1 9:-1 11:-1 
-1 1:1 2:-1 3:-1 4:1 5:-1 6:-1 7:-1 8:0.6 9:0.818182 11:-1 
-1 1:1 2:-1 3:-1 4:1 5:-1 6:-1 7:-1 8:0.4 9:0.212121 11:-1 
-1 1:1 2:-1 3:1 4:1 5:-1 6:-1 7:-1 8:-1 9:0.737374 11:-1 
-1 1:1 2:-1 3:-1 4:1 5:-1 6:-1 7:-1 8:0.6 9:0.191919 11:-1 
-1 1:1 2:-1 3:-1 4:1 5:-1 6:-1 7:-1 8:0.6 9:0.919192 11:-1 
-1 1:1 2:-1 3:1 4:1 5:-1 6:-1 7:-1 8:0.2 9:1 11:-1 
-1 1:1 2:-1 3:-1 4:1 5:-1 6:0.52 7:-1 8:-1 9:-0.979798 11:-1 
-1 1:-1 2:-1 3:-1 4:1 5:-1 6:-0.9 7:-1 9:0.858586 11:-1 
-1 1:1 2:-1 3:1 4:1 5:-1 6:-0.54 7:-1 8:-0.4 9:0.959596 11:-1 
-1 1:1 2:-1 3:1 4:1 5:-1 6:-1 7:-1 8:0.6 9:1 11:-1 
-1 1:-1 2:-1 3:-1 4:1 5:-1 6:1 7:-1 8:-1 9:-0.979798 11:-1 
-1 1:1 2:-1 3:-1 4:1 5:-1 6:-1 7:-1 8:0.6 9:0.878788 11:-1 
-1 1:1 2:-1 3:-1 4:-1 5:-1 6:-1 7:-1 8:-1 9:-1 11:-1 
-1 1:1 2:-1 3:-1 4:1 5:-1 6:-1 7:-1 8:0.6 9:0.838384 11:-1 
-1 1:1 2:-1 3:-1 4:-1 5:-1 6:-1 7:-1 8:-1 9:-1 11:-1 
-1 1:1 2:-1 3:-1 4:1 5:-1 6:-1 7:-0.75 8:0.2 9:0.171717 11:-1 
-1 1:-1 2:-1 3:-1 4:-1 5:-1 6:-1 7:-1 8:-1 9:-1 11:-1 
-1 1:-1 2:-1 3:1 4:1 5:-1 6:-1 7:-1 8:0.2 9:1 11:-1 
-1 1:1 2:-1 3:1 4:1 5:-1 6:-1 7:-1 8:-1 9:0.676768 11:-1 
-1 1:1 2:-1 3:-1 4:1 5:-1 6:-1 7:-1 8:0.4 9:0.0505051 11:-1 
-1 1:-1 2:-1 3:-1 4:1 5:-1 6:-0.3 7:-1 8:-1 9:-0.838384 11:-1 
-1 1:1 2:-1 3:1 4:1 5:-1 6:-0.54 7:-1 8:0.6 9:0.212121 11:-1 
-1 1:1 2:-1 3:-1 4:1 5:-1 6:-1 7:-1 8:0.6 9:0.555556 11:-1 
-1 1:1 2:-1 3:-1 4:1 5:-1 6:-1 7:-1 8:0.6 9:-0.030303 11:-1 
-1 1:1 2:-1 3:-1 4:1 5:-1 6:-1 7:-1 8:-1 9:-0.858586 11:-1 
-1 1:-1 2:-1 3:-1 4:1 5:-1 6:0.88 7:-0.75 8:-1 9:-0.737374 11:-1 
-1 1:1 2:-1 3:1 4:1 5:-1 6:-1 7:-0.75 8:0.6 9:0.838384 11:-1 
-1 1:1 2:-1 3:-1 4:1 5:-1 6:-1 7:-1 8:0.4 9:0.575758 11:-1 
-1 1:1 2:-1 3:-1 4:1 5:-1 6:-1 7:-1 8:0.6 9:0.0505051 11:-1 
-1 1:1 2:-1 3:-1 4:1 5:-1 6:-0.66 7:-1 8:0.6 9:0.757576 11:-1 
-1 1:1 2:-1 3:-1 4:1 5:-1 6:-1 7:-1 8:0.6 9:0.575758 11:-1 
-1 1:1 2:-1 3:1 4:1 5:-1 6:-1 7:-1 8:0.4 9:1 11:-1 
-1 1:1 2:-1 3:-1 4:1 5:1 6:0.52 7:-1 8:-1 9:-1 11:-1 
-1 1:-1 2:-1 3:1 4:1 5:-1 6:0.04 7:-1 8:-1 9:0.676768 11:-1 
-1 1:1 2:-1 3:-1 4:-1 5:-1 6:-1 7:-1 8:-1 9:-1 11:-1 
-1 1:1 2:-1 3:1 4:1 5:-1 6:-0.54 7:-1 8:0.2 9:0.575758 11:-1 
-1 1:1 2:-1 3:-1 4:1 5:-1 6:-0.9 7:-1 8:0.4 9:1 11:-1 
-1 1:1 2:-1 3:-1 4:1 5:-0.6 6:-0.9 7:-1 8:-1 9:0.656566 11:-1 
-1 1:1 2:-1 3:-1 4:1 5:-1 6:-1 7:-1 8:0.4 9:0.757576 11:-1 
-1 1:1 2:-1 3:-1 4:1 5:-1 6:-1 7:-1 8:0.6 9:0.353535 11:-1 
-1 1:1 2:-1 3:-1 4:1 5:-0.2 6:-0.3 7:-1 8:-0.2 9:0.656566 11:-1 
-1 1:1 2:-1 3:-1 4:1 5:-1 6:-1 7:-1 8:0.4 9:0.737374 11:-1 
-1 1:1 2:-1 3:1 4:1 5:-1 6:-1 7:-1 8:0.4 9:1 11:-1 
-1 1:1 2:-1 3:-1 4:1 5:-1 6:-0.42 7:-1 9:0.353535 11:-1 
-1 1:1 2:-1 3:-1 4:1 5:-1 6:-0.9 7:-1 8:0.6 9:0.656566 11:-1 
-1 1:1 2:-1 3:-1 4:1 5:-1 6:-1 7:-1 8:0.6 9:0.454545 11:-1 
-1 1:1 2:-1 3:-1 4:1 5:-1 6:-1 7:-1 8:0.4 9:0.434343 11:-1 
-1 1:1 2:-1 3:1 4:1 5:1 6:0.64 7:-1 8:-1 9:-1 11:-1 
-1 1:1 2:-1 3:-1 4:1 5:-1 6:-0.9 7:-1 8:0.4 9:0.393939 11:-1 
-0.00767958558994139 1:1 2:-1 3:1 4:1 5:-1 6:-1 7:-1 8:0.6 9:0.979798 11:-1 
-1 1:1 2:-1 3:-1 4:1 5:-1 6:0.28 7:-1 8:-1 9:-0.979798 11:-1 
-1 1:1 2:-1 3:1 4:1 5:-1 6:-1 7:-1 8:0.6 9:-0.111111 11:-1 
-1 1:1 2:-1 3:-1 4:1 5:-1 6:-1 7:-1 8:0.6 9:0.656566 11:-1 
-1 1:1 2:-1 3:1 4:1 5:-1 6:-1 7:-1 8:0.4 9:0.393939 11:-1 
-1 1:-1 2:-1 3:-1 4:1 5:-1 6:-0.42 7:-1 8:-1 9:0.131313 11:-1 
-1 1:1 2:-1 3:-1 4:1 5:-1 6:-1 7:-1 8:0.6 9:0.717172 11:-1 
-1 1:1 2:-1 3:1 4:1 5:-1 6:-1 7:-1 8:0.4 9:0.757576 11:-1 
-1 1:1 2:-1 3:1 4:1 5:-1 6:-1 7:-1 8:0.6 9:0.131313 11:-1 
-1 1:1 2:-1 3:-1 4:1 5:-1 6:-1 7:-1 8:0.6 9:0.555556 11:-1 
-1 1:1 2:-1 3:-1 4:1 5:-1 6:-1 7:-1 9:0.030303 11:-1 
-1 1:1 2:-1 3:1 4:1 5:-0.2 6:-1 7:-1 8:-0.4 9:0.353535 11:-1 
-1 1:1 2:-1 3:-1 4:1 5:-1 6:0.88 7:-1 8:-1 9:-1 11:-1 
-1 1:1 2:-1 3:-1 4:1 5:-1 6:0.04 7:-1 8:-1 9:-0.232323 11:-1 
-1 1:1 2:-1 3:1 4:1 5:-1 6:-0.18 7:-1 8:-0.2 9:0.89899 11:-1 
-1 1:1 2:-1 3:-1 4:-1 5:-1 6:-1 7:-1 8:-1 9:-1 11:-1 
-1 1:1 2:-1 3:-1 4:1 5:-1 6:-1 7:-1 8:0.6 9:0.818182 11:-1 
-1 1:1 2:-1 3:1 4:1 5:-1 6:-1 7:-1 8:0.2 9:0.515152 11:-1 
-1 1:1 2:-1 3:-1 4:1 5:-1 6:0.04 7:-1 8:-1 9:0.151515 11:-1 
-1 1:1 2:-1 3:-1 4:1 5:-1 6:-1 7:-1 8:0.6 9:0.555556 11:-1 
-1 1:1 2:-1 3:-1 4:1 5:-1 6:-0.9 7:-1 9:0.656566 11:-1 
-1 1:1 2:-1 3:1 4:-1 5:-1 6:-1 7:-1 8:-1 9:-1 11:-1 
-1 1:1 2:-1 3:1 4:1 5:1 6:0.88 7:-1 8:-1 9:-1 11:-1 
-1 1:-1 2:-1 3:-1 4:1 5:-1 6:-1 7:-1 8:0.6 9:0.151515 11:-1 
-1 1:1 2:-1 3:1 4:1 5:-1 6:-1 7:-1 8:0.4 9:1 11:-1 
-1 1:1 2:-1 3:-1 4:1 5:-1 6:-0.54 7:-1 8:0.4 9:1 11:-1 
-1 1:-1 2:-1 3:-1 4:1 5:-1 6:-1 7:-1 8:0.8 9:0.555556 11:-1 
-1 1:1 2:-1 3:-1 4:1 5:-1 6:-1 7:-1 8:0.6 9:0.939394 11:-1 
-1 1:1 2:-1 3:-1 4:1 5:-0.6 6:-1 7:-1 8:-1 9:1 11:-1 
-1 1:1 2:-1 3:-1 4:1 5:-1 6:-0.9 7:-1 8:0.2 9:0.959596 11:-1 
-1 1:1 2:-1 3:1 4:1 5:-1 6:-1 7:-1 8:0.4 9:0.515152 11:-1 
-1 1:1 2:-1 3:-1 4:1 5:-1 6:-1 7:-1 8:0.4 9:0.89899 11:-1 
-1 1:1 2:-1 3:1 4:1 5:-1 6:-1 7:-1 8:0.4 9:0.79798 11:-1 
-1 1:1 2:-1 3:1 4:1 5:-1 6:-0.9 7:-1 8:-1 9:0.292929 11:-1 
-1 1:1 2:-1 3:-1 4:1 5:-1 6:-0.54 7:-1 8:0.2 9:0.333333 11:-1 
-1 1:-1 2:-1 3:1 4:1 5:-1 6:0.52 7:-0.75 8:-1 9:-0.636364 11:-1 
-1 1:1 2:-1 3:-1 4:1 5:-1 6:-1 7:-1 8:0.8 9:-0.0505051 11:-1 
-1 1:1 2:-1 3:1 4:1 5:-1 6:-1 7:-1 8:0.6 9:1 11:-1 
-1 1:1 2:-1 3:1 4:1 5:-1 6:-1 7:-0.75 8:0.2 9:0.434343 11:-1 
-1 1:1 2:-1 3:-1 4:1 5:-1 6:-1 7:-1 8:0.6 9:0.656566 11:-1 
-1 1:1 2:-1 3:-1 4:1 5:-1 6:-0.66 7:-1 8:-0.2 9:0.575758 11:-1 
-1 1:1 2:-1 3:1 4:1 5:-1 6:-0.66 7:-1 8:0.4 9:0.79798 11:-1 
-1 1:-1 2:-1 3:-1 4:-1 5:-1 6:-1 7:-1 8:-1 9:-1 11:-1 
-1 1:1 2:-1 3:-1 4:1 5:-1 6:-0.54 7:-1 8:-1 9:0.333333 11:-1 
-1 1:1 2:-1 3:-1 4:-1 5:-1 6:-1 7:-1 8:-1 9:-1 11:-1 
-1 1:1 2:-1 3:1 4:1 5:-0.6 6:-1 7:-1 8:-1 9:0.939394 11:-1 
-1 1:1 2:-1 3:-1 4:1 5:-1 6:-1 7:-1 8:0.4 9:0.979798 11:-1 
-1 1:1 2:-1 3:1 4:1 5:-1 6:-1 7:-1 8:0.6 9:1 11:-1 
-1 1:1 2:-1 3:1 4:1 5:-1 6:-0.66 7:-1 9:1 11:-1 
-1 1:-1 2:-1 3:-1 4:-1 5:-1 6:-1 7:-1 8:-1 9:-1 11:-1 
-1 1:1 2:-1 3:-1 4:1 5:-1 6:-0.66 7:-1 8:0.4 9:1 11:-1 
-1 1:1 2:-1 3:-1 4:1 5:-1 6:-1 7:-1 9:-0.131313 11:-1 
-1 1:1 2:-1 3:-1 4:1 5:-1 6:-1 7:-1 8:0.6 9:0.959596 11:-1 
-1 1:1 2:-1 3:-1 4:1 5:-1 6:-1 7:-0.75 8:0.6 9:0.959596 11:-1 
-1 1:1 2:-1 3:1 4:1 5:-1 6:-1 7:-1 8:0.4 9:1 11:-1 
-1 1:1 2:-1 3:1 4:1 5:-1 6:-0.54 7:-1 8:0.4 9:0.393939 11:-1 
-1 1:1 2:-1 3:-1 4:1 5:-1 6:-0.66 7:-1 9:0.979798 11:-1 
-1 1:1 2:-1 3:1 4:1 5:1 6:0.52 7:-1 8:-1 9:-1 11:-1 
-1 1:-1 2:-1 3:-1 4:1 5:-1 6:-1 7:-1 8:0.4 9:0.959596 11:-1 
-1 1:1 2:-1 3:1 4:1 5:-1 6:-0.9 7:-1 8:0.6 9:0.919192 11:-1 
-1 1:1 2:-1 3:1 4:1 5:-1 6:-0.42 7:-1 8:-0.2 9:0.535354 11:-1 
-1 1:1 2:-1 3:-1 4:1 5:-1 6:-1 7:-1 8:0.2 9:0.89899 11:-1 
-1 1:1 2:-1 3:-1 4:1 5:-1 6:-0.9 7:-1 8:0.4 9:-0.0707071 11:-1 
-1 1:-1 2:-1 3:-1 4:1 5:-1 6:-1 7:-1 8:0.2 9:0.292929 11:-1 
-1 1:1 2:-1 3:-1 4:1 5:-1 6:-1 7:-1 8:0.6 9:0.676768 11:-1 
-1 1:1 2:-1 3:1 4:1 5:-1 6:-1 7:-1 8:0.2 9:0.777778 11:-1 
-1 1:1 2:-1 3:-1 4:1 5:-1 6:0.28 7:-1 8:-1 9:-0.89899 11:-1 
-1 1:1 2:-1 3:-1 4:1 5:-1 6:-1 7:-1 8:-0.2 9:0.979798 11:-1 
-1 1:1 2:-1 3:1 4:1 5:-1 6:-1 7:-1 8:0.4 9:-0.111111 11:-1 
-1 1:-1 2:-1 3:-1 4:1 5:-1 6:-0.42 7:-1 8:-0.4 9:0.757576 11:-1 
-1 1:-1 2:-1 3:1 4:-1 5:-1 6:-1 7:-1 8:-1 9:-1 11:-1 
-1 1:1 2:-1 3:1 4:1 5:-1 6:-1 7:-1 8:0.6 9:1 11:-1 
-1 1:1 2:-1 3:-1 4:1 5:-1 6:-0.9 7:-1 8:0.6 9:0.858586 11:-1 
-1 1:1 2:-1 3:1 4:1 5:-1 6:-1 7:-1 8:0.4 9:0.777778 11:-1 
-1 1:1 2:-1 3:-1 4:1 5:-1 6:-1 7:-1 8:0.6 9:0.737374 11:-1 
-1 1:1 2:-1 3:1 4:1 5:-1 6:-1 7:-0.75 8:0.2 9:1 11:-1 
-1 1:-1 2:-1 3:1 4:1 5:-1 6:-1 7:-1 8:0.8 9:0.272727 11:-1 
-1 1:-1 2:-1 3:-1 4:1 5:-1 6:-1 7:-1 8:0.6 9:1 11:-1 
-1 1:-1 2:-1 3:-1 4:1 5:1 6:0.52 7:-1 8:-1 9:-1 11:-1 
-1 1:1 2:-1 3:-1 4:1 5:-0.6 6:-1 7:-1 8:-1 9:0.737374 11:-1 
-1 1:-1 2:-1 3:-1 4:1 5:-1 6:-1 7:-1 8:0.8 9:0.919192 11:-1 
-1 1:1 2:-1 3:-1 4:1 5:-1 6:-1 7:-1 8:0.6 9:0.818182 11:-1 
-1 1:1 2:-1 3:-1 4:1 5:-1 6:0.64 7:-1 8:-1 9:-0.292929 11:-1 
-1 1:-1 2:-1 3:-1 4:1 5:-1 6:0.64 7:-1 8:-1 9:-0.333333 11:-1 
-1 1:1 2:-1 3:-1 4:1 5:-1 6:0.4 7:-1 8:-0.4 9:0.292929 11:-1 
-1 1:1 2:-1 3:-1 4:1 5:-1 6:-0.54 7:-1 8:-0.4 9:0.575758 11:-1 
-1 1:1 2:-1 3:1 4:1 5:-1 6:-1 7:-1 8:0.2 9:0.757576 11:-1 
-1 1:1 2:-1 3:-1 4:-1 5:-1 6:-1 7:-1 8:-1 9:-1 11:-1 
-1 1:1 2:-1 3:1 4:1 5:-1 6:-1 7:-1 8:0.4 9:0.89899 11:-1 
-1 1:-1 2:-1 3:1 4:1 5:-1 6:-1 7:-1 8:0.2 9:1 11:-1 
-1 1:-1 2:-1 3:1 4:1 5:-1 6:-1 7:-1 8:0.8 9:0.979798 11:-1 
-1 1:1 2:-1 3:-1 4:-1 5:-1 6:-1 7:-1 8:-1 9:-1 11:-1 
-1 1:-1 2:-1 3:1 4:1 5:-0.2 6:-0.66 7:-1 8:0.2 9:0.89899 11:-1 
-1 1:-1 2:-1 3:1 4:1 5:-1 6:-1 7:-1 9:0.89899 11:-1 
-1 1:1 2:-1 3:-1 4:-1 5:-1 6:-1 7:-1 8:-1 9:-1 11:-1 
-1 1:1 2:-1 3:-1 4:1 5:-1 6:-0.66 7:-1 8:-0.4 9:0.919192 11:-1 
-1 1:1 2:-1 3:-1 4:-1 5:-1 6:-1 7:-1 8:-1 9:-1 11:-1 
-1 1:1 2:-1 3:-1 4:1 5:-1 6:-1 7:-1 8:0.2 9:0.979798 11:-1 
-1 1:-1 2:-1 3:-1 4:1 5:-1 6:-1 7:-1 8:0.2 9:-0.191919 11:-1 
-1 1:-1 2:-1 3:-1 4:1 5:-1 6:-1 7:-1 8:0.6 9:0.717172 11:-1 
-1 1:1 2:-1 3:-1 4:1 5:-1 6:-0.9 7:-1 8:0.4 9:1 11:-1 
-1 1:1 2:-1 3:1 4:1 5:-1 6:-1 7:-1 9:0.979798 11:-1 
-1 1:-1 2:-1 3:1 4:1 5:-1 6:-0.18 7:-1 8:-0.4 9:-0.232323 11:-1 
-1 1:1 2:-1 3:-1 4:-1 5:-1 6:-1 7:-1 8:-1 9:-1 11:-1 
-1 1:1 2:-1 3:1 4:1 5:-1 6:-0.9 7:-1 9:1 11:-1 
-1 1:1 2:-1 3:-1 4:1 5:-1 6:-1 7:-1 8:0.2 9:0.656566 11:-1 
-1 1:1 2:-1 3:-1 4:-1 5:-1 6:-1 7:-1 8:-1 9:-1 11:-1 
-1 1:1 2:-1 3:-1 4:1 5:-1 6:-1 7:-0.75 8:0.6 9:-0.0505051 11:-1 
-1 1:1 2:-1 3:-1 4:1 5:-1 6:-1 7:-1 8:0.8 9:0.030303 11:-1 
-1 1:1 2:-1 3:-1 4:1 5:-1 6:0.04 7:-1 8:-1 9:-0.535354 11:-1 
-1 1:-1 2:-1 3:1 4:1 5:-1 6:-1 7:-1 8:0.8 9:0.535354 11:-1 
-1 1:1 2:-1 3:-1 4:1 5:-1 6:0.04 7:-1 8:-1 9:-0.393939 11:-1 
-1 1:1 2:-1 3:1 4:1 5:-1 6:-0.06 7:-1 8:0.2 9:0.616162 11:-1 
-1 1:1 2:-1 3:-1 4:1 5:-0.2 6:-1 7:-1 8:0.8 9:0.89899 11:1 
-1 1:1 2:-1 3:1 4:1 5:-1 6:-1 7:-1 8:0.6 9:-0.0909091 11:-1 
-1 1:1 2:-1 3:1 4:1 5:-1 6:-0.42 7:-1 8:-0.4 9:0.131313 11:-1 
-1 1:1 2:-1 3:-1 4:1 5:-1 6:-1 7:-1 8:0.4 9:1 11:-1 
-1 1:1 2:-1 3:1 4:1 5:-1 6:-1 7:-1 8:0.4 9:0.959596 11:-1 
-1 1:1 2:-1 3:1 4:1 5:-1 6:0.16 7:-1 8:-1 9:0.232323 11:-1 
-1 1:1 2:-1 3:-1 4:-1 5:-1 6:-1 7:-1 8:-1 9:-1 11:-1 
-1 1:1 2:-1 3:1 4:-1 5:-1 6:-1 7:-1 8:-1 9:-1 11:-1 
-1 1:1 2:-1 3:-1 4:-1 5:-1 6:-1 7:-1 8:-1 9:-1 11:-1 
-1 1:1 2:-1 3:-1 4:1 5:-0.2 6:-1 7:-1 8:-0.2 9:0.858586 11:-1 
-1 1:1 2:-1 3:-1 4:-1 5:-1 6:-1 7:-1 8:-1 9:-1 11:-1 
-1 1:1 2:-1 3:1 4:1 5:1 6:0.64 7:-1 8:-1 9:-1 11:-1 
-1 1:-1 2:-1 3:-1 4:1 5:-1 6:0.76 7:-0.75 8:-1 9:-0.979798 11:-1 
-1 1:1 2:-1 3:1 4:1 5:-1 6:-0.3 7:-1 9:0.656566 11:-1 
-1 1:1 2:-1 3:-1 4:1 5:-1 6:-1 7:-1 8:0.4 9:1 11:-1 
-1 1:1 2:-1 3:-1 4:1 5:-1 6:-0.42 7:-1 8:-0.4 9:0.636364 11:-1 
-1 1:1 2:-1 3:-1 4:1 5:-1 6:-0.66 7:-1 9:0.191919 11:-1 
-1 1:1 2:-1 3:-1 4:1 5:-1 6:-0.18 7:-1 8:-0.2 9:1 11:-1 
-1 1:1 2:-1 3:-1 4:1 5:-1 6:-1 7:-1 8:0.8 9:-0.030303 11:-1 
-1 1:1 2:-1 3:-1 4:1 5:-1 6:-0.66 7:-1 8:0.6 9:0.919192 11:-1 
-1 1:1 2:-1 3:-1 4:1 5:-1 6:-1 7:-1 8:0.6 9:0.535354 11:-1 
-1 1:-1 2:-1 3:-1 4:1 5:-1 6:-1 7:-1 8:0.6 9:0.575758 11:-1 
-1 1:1 2:-1 3:-1 4:-1 5:-1 6:-1 7:-1 8:-1 9:-1 11:-1 
-1 1:-1 2:-1 3:1 4:1 5:-1 6:-0.78 7:-1 8:-0.2 9:0.757576 11:-1 
-1 1:1 2:-1 3:1 4:1 5:-0.2 6:-1 7:-1 8:-1 9:0.959596 11:1 
-1 1:-1 2:-1 3:-1 4:1 5:1 6:1 7:-1 8:-1 9:-1 11:-1 
-1 1:1 2:-1 3:1 4:1 5:-1 6:-0.66 7:-1 9:1 11:-1 
-1 1:1 2:-1 3:-1 4:1 5:-1 6:-1 7:-1 8:0.6 9:-0.0909091 11:-1 
-1 1:1 2:-1 3:-1 4:1 5:-1 6:-0.78 7:-1 8:0.4 9:0.919192 11:-1 
-1 1:1 2:-1 3:-1 4:-1 5:-1 6:-1 7:-1 8:-1 9:-1 11:-1 
-1 1:1 2:-1 3:1 4:1 5:-1 6:-1 7:-1 8:0.6 9:0.333333 11:-1 
-1 1:1 2:-1 3:-1 4:1 5:-1 6:-1 7:-1 8:0.6 9:0.737374 11:-1 
-1 1:-1 2:-1 3:-1 4:1 5:-1 6:-1 7:-1 8:0.8 9:0.171717 11:-1 
-1 1:1 2:-1 3:-1 4:1 5:-1 6:-1 7:-1 8:0.2 9:-0.0505051 11:-1 
-1 1:1 2:-1 3:-1 4:1 5:-1 6:-0.78 7:-1 8:-1 9:0.353535 11:-1 
-1 1:1 2:-1 3:-1 4:1 5:-1 6:-1 7:-1 8:0.2 9:0.79798 11:-1 
-1 1:1 2:-1 3:1 4:1 5:-1 6:-1 7:-1 8:0.6 9:1 11:-1 
-1 1:1 2:-1 3:-1 4:1 5:-1 6:-1 7:-1 8:0.6 9:0.232323 11:-1 
-1 1:1 2:-1 3:-1 4:1 5:-1 6:-1 7:-1 8:0.6 9:0.79798 11:-1 
-1 1:1 2:-1 3:1 4:1 5:-1 6:-0.3 7:-1 8:-0.4 9:0.959596 11:-1 
-1 1:1 2:-1 3:-1 4:-1 5:-1 6:-1 7:-1 8:-1 9:-1 11:-1 
-1 1:1 2:-1 3:1 4:-1 5:-1 6:-1 7:-1 8:-1 9:-1 11:-1 
-1 1:1 2:-1 3:1 4:1 5:-1 6:-1 7:-1 8:0.6 9:1 11:-1 
-1 1:-1 2:-1 3:-1 4:1 5:1 6:0.64 7:-1 8:-1 9:-1 11:-1 
-1 1:-1 2:-1 3:1 4:1 5:-1 6:-1 7:-1 8:0.6 9:0.232323 11:-1 
-1 1:-1 2:-1 3:1 4:1 5:-1 6:1 7:-1 8:-1 9:-1 11:-1 
-1 1:1 2:-1 3:-1 4:1 5:-1 6:-1 7:-1 8:0.6 9:0.737374 11:-1 
-1 1:1 2:-1 3:1 4:1 5:-1 6:-0.9 7:-1 8:0.4 9:0.89899 11:-1 
-1 1:1 2:-1 3:-1 4:-1 5:-1 6:-1 7:-1 8:-1 9:-1 11:-1 
-1 1:1 2:-1 3:1 4:1 5:1 6:0.88 7:-1 8:-1 9:-1 11:-1 
-1 1:1 2:-1 3:1 4:1 5:-1 6:-1 7:-1 8:0.4 9:1 11:-1 
-1 1:1 2:-1 3:-1 4:1 5:-1 6:-1 7:-1 8:0.6 9:0.717172 11:-1 
-1 1:1 2:-1 3:-1 4:-1 5:-1 6:-1 7:-1 8:-1 9:-1 11:-1 
-1 1:1 2:-1 3:-1 4:1 5:-1 6:-0.42 7:-1 8:0.2 9:0.373737 11:-1 
-1 1:1 2:-1 3:-1 4:1 5:-1 6:-1 7:-1 8:0.4 9:1 11:-1 
-1 1:-1 2:-1 3:1 4:1 5:-1 6:-0.3 7:-1 8:-1 9:0.232323 11:-1 
-1 1:1 2:-1 3:-1 4:1 5:-1 6:-1 7:-1 8:0.8 9:-0.010101 11:-1 
-1 1:1 2:-1 3:1 4:1 5:-1 6:-0.66 7:-1 8:0.2 9:1 11:-1 
-1 1:1 2:-1 3:-1 4:1 5:-1 6:-1 7:-1 8:0.6 9:0.89899 11:-1 
-1 1:1 2:-1 3:-1 4:1 5:-1 6:-0.66 7:-1 8:0.2 9:0.131313 11:-1 
-1 1:1 2:-1 3:-1 4:-1 5:-1 6:-1 7:-1 8:-1 9:-1 11:-1 
-1 1:-1 2:-1 3:-1 4:-1 5:-1 6:-1 7:-1 8:-1 9:-1 11:-1 
-1 1:1 2:-1 3:1 4:1 5:-1 6:-1 7:-1 8:0.4 9:0.616162 11:-1 
-1 1:1 2:-1 3:-1 4:-1 5:-1 6:-1 7:-1 8:-1 9:-1 11:-1 
-1 1:1 2:-1 3:-1 4:1 5:-1 6:0.16 7:-1 8:-1 9:-0.89899 11:-1 
-1 1:1 2:-1 3:1 4:1 5:-1 6:-1 7:-1 8:0.4 9:0.494949 11:-1 
-1 1:1 2:-1 3:-1 4:1 5:-1 6:-0.78 7:-1 8:-0.4 9:0.353535 11:-1 
-1 1:-1 2:-1 3:1 4:1 5:-1 6:-1 7:-0.75 8:-0.2 9:0.919192 11:-1 
-1 1:-1 2:-1 3:1 4:1 5:-1 6:-1 7:-1 8:0.6 9:0.858586 11:-1 
-1 1:1 2:-1 3:-1 4:-1 5:-1 6:-1 7:-1 8:-1 9:-1 11:-1 
-1 1:1 2:-1 3:-1 4:1 5:-1 6:0.16 7:-1 8:-1 9:0.414141 11:-1 
-1 1:1 2:-1 3:1 4:1 5:-0.6 6:0.88 7:-0.75 8:-1 9:0.151515 11:-1 
-1 1:1 2:-1 3:1 4:1 5:-1 6:-1 7:-1 9:0.212121 11:-1 
-1 1:-1 2:-1 3:1 4:1 5:1 6:1 7:-1 8:-1 9:-1 11:-1 
-1 1:1 2:-1 3:1 4:1 5:-1 6:0.64 7:-0.5 8:-1 9:-0.878788 11:-1 
-1 1:1 2:-1 3:-1 4:1 5:-1 6:-1 7:-1 8:-1 9:0.292929 11:-1 
-1 1:1 2:-1 3:1 4:1 5:-1 6:-1 7:-1 8:0.6 9:0.030303 11:-1 
-1 1:1 2:-1 3:-1 4:1 5:-1 6:-1 7:-1 8:0.4 9:1 11:-1 
-1 1:1 2:-1 3:-1 4:1 5:-1 6:-1 7:-1 8:0.2 9:-0.010101 11:-1 
-1 1:1 2:-1 3:-1 4:1 5:-1 6:-1 7:-1 8:0.4 9:0.737374 11:-1 
-1 1:1 2:-1 3:1 4:1 5:-1 6:-1 7:-1 8:0.6 9:0.515152 11:-1 
-1 1:1 2:-1 3:1 4:1 5:-1 6:-0.9 7:-1 8:0.4 9:0.272727 11:-1 
-1 1:1 2:-1 3:1 4:-1 5:-1 6:-1 7:-1 8:-1 9:-1 11:-1 
-1 1:1 2:-1 3:-1 4:1 5:-1 6:-1 7:-1 8:0.4 9:0.737374 11:-1 
-1 1:1 2:-1 3:1 4:1 5:-1 6:-1 7:-1 8:0.4 9:0.555556 11:-1 
-1 1:1 2:-1 3:1 4:1 5:-1 6:-0.66 7:-1 8:0.2 9:0.959596 11:-1 
-1 1:-1 2:-1 3:1 4:1 5:-1 6:-0.78 7:-1 9:0.575758 11:-1 
-1 1:1 2:-1 3:1 4:-1 5:-1 6:-1 7:-1 8:-1 9:-1 11:-1 
-1 1:-1 2:-1 3:1 4:1 5:-1 6:-1 7:-1 8:0.2 9:0.757576 11:-1 
-1 1:1 2:-1 3:1 4:1 5:-1 6:0.64 7:-0.75 8:-1 9:-0.858586 11:-1 
-1 1:1 2:-1 3:-1 4:1 5:-1 6:-0.66 7:-1 8:-0.4 9:0.272727 11:-1 
-1 1:1 2:-1 3:1 4:1 5:-1 6:-1 7:-1 8:-1 9:-0.959596 11:-1 
-1 1:1 2:-1 3:-1 4:-1 5:-1 6:-1 7:-1 8:-1 9:-1 11:-1 
-1 1:1 2:-1 3:1 4:1 5:-1 6:-1 7:-1 8:0.6 9:-0.0707071 11:-1 
-1 1:1 2:-1 3:-1 4:-1 5:-1 6:-1 7:-1 8:-1 9:-1 11:-1 
-1 1:1 2:-1 3:1 4:1 5:-1 6:-1 7:-1 9:-0.131313 11:-1 
-1 1:1 2:-1 3:-1 4:1 5:-1 6:-1 7:-1 8:0.4 9:0.232323 11:-1 
-1 1:1 2:-1 3:-1 4:1 5:-1 6:-1 7:-1 8:0.6 9:0.414141 11:-1 
-1 1:-1 2:-1 3:1 4:1 5:-1 6:-1 7:-1 8:0.8 9:1 11:-1 
-1 1:1 2:-1 3:-1 4:1 5:-1 6:-1 7:-1 8:0.6 9:0.939394 11:-1 
-1 1:1 2:-1 3:-1 4:1 5:-1 6:-1 7:-1 8:0.4 9:1 11:-1 
-1 1:1 2:-1 3:1 4:1 5:-1 6:-1 7:-1 8:0.6 9:0.111111 11:-1 
-1 1:1 2:-1 3:-1 4:1 5:-1 6:0.88 7:-1 8:-1 9:-1 11:-1 
-1 1:1 2:-1 3:-1 4:1 5:-0.2 6:-1 7:-1 9:0.818182 11:-1 
-1 1:1 2:-1 3:1 4:1 5:-1 6:-0.78 7:-1 9:0.939394 11:-1 
-1 1:1 2:-1 3:1 4:1 5:-1 6:-1 7:-1 8:0.2 9:0.979798 11:-1 
-1 1:-1 2:-1 3:-1 4:1 5:-1 6:0.04 7:-1 9:-0.818182 11:-1 
-1 1:1 2:-1 3:1 4:1 5:-1 6:-1 7:-1 8:-0.4 9:0.89899 11:-1 
-1 1:-1 2:-1 3:-1 4:1 5:-1 6:0.88 7:-1 8:-1 9:-0.636364 11:-1 
-1 1:1 2:-1 3:-1 4:1 5:-1 6:-1 7:-1 8:0.2 9:0.979798 11:-1 
-1 1:1 2:-1 3:1 4:1 5:-1 6:-0.54 7:-1 9:0.636364 11:-1 
-1 1:-1 2:-1 3:-1 4:1 5:-1 6:-1 7:-1 8:-1 9:-0.353535 11:-1 
-1 1:1 2:-1 3:-1 4:-1 5:-1 6:-1 7:-1 8:-1 9:-1 11:-1 
-1 1:1 2:-1 3:-1 4:1 5:-1 6:0.04 7:-1 8:-1 9:-0.010101 11:-1 
-1 1:1 2:-1 3:-1 4:-1 5:-1 6:-1 7:-1 8:-1 9:-1 11:-1 
-1 1:1 2:-1 3:-1 4:1 5:-1 6:-1 7:-1 8:0.6 9:0.939394 11:-1 
-1 1:1 2:-1 3:-1 4:1 5:-1 6:-0.9 7:-1 8:-0.2 9:0.79798 11:-1 
-1 1:1 2:-1 3:-1 4:1 5:-1 6:-1 7:-1 8:0.4 9:0.757576 11:-1 
-1 1:1 2:-1 3:1 4:1 5:-1 6:-0.78 7:-1 8:0.2 9:0.636364 11:-1 
-1 1:1 2:-1 3:-1 4:1 5:-1 6:-0.66 7:-1 9:0.737374 11:-1 
-1 1:1 2:-1 3:-1 4:1 5:-1 6:-1 7:-1 8:0.4 9:0.777778 11:-1 
-1 1:1 2:-1 3:-1 4:1 5:-1 6:-0.9 7:-1 8:0.6 9:1 11:-1 
-1 1:1 2:-1 3:1 4:1 5:-1 6:-1 7:-1 8:0.6 9:0.373737 11:-1 
-1 1:1 2:-1 3:-1 4:1 5:-1 6:-1 7:-1 8:-1 9:0.636364 11:-1 
-1 1:1 2:-1 3:-1 4:1 5:-0.6 6:-1 7:-1 8:-1 9:0.292929 11:-1 
-1 1:1 2:-1 3:-1 4:1 5:-1 6:-1 7:-1 8:0.6 9:0.89899 11:-1 
-1 1:1 2:-1 3:-1 4:1 5:1 6:0.52 7:-1 8:-1 9:-1 11:-1 
-1 1:1 2:-1 3:-1 4:1 5:-1 6:-0.9 7:-1 8:0.4 9:1 11:-1 
-1 1:1 2:-1 3:1 4:1 5:-1 6:-0.54 7:-1 8:-1 9:0.171717 11:-1 
-1 1:1 2:-1 3:1 4:1 5:-1 6:-1 7:-1 8:0.6 9:0.555556 11:-1 
-1 1:1 2:-1 3:1 4:1 5:-1 6:-1 7:-1 8:0.4 9:0.838384 11:-1 
-1 1:1 2:-1 3:-1 4:1 5:1 6:0.52 7:-1 8:-1 9:-1 11:-1 
-1 1:1 2:-1 3:1 4:1 5:-1 6:-1 7:-1 8:0.2 9:0.212121 11:-1 
-1 1:1 2:-1 3:-1 4:-1 5:-1 6:-1 7:-1 8:-1 9:-1 11:-1 
-1 1:-1 2:-1 3:-1 4:1 5:-1 6:-1 7:-1 8:-0.4 9:0.939394 11:-1 
-1 1:1 2:-1 3:1 4:1 5:-1 6:-1 7:-1 9:-0.0909091 11:-1 
-1 1:1 2:-1 3:1 4:1 5:-1 6:-0.9 7:-1 8:-0.4 9:0.979798 11:-1 
-1 1:1 2:0.0909091 3:-1 4:1 5:-1 6:-1 7:-1 8:0.6 9:0.555556 11:-1 
-1 1:1 2:-1 3:-1 4:1 5:-1 6:-1 7:-1 8:0.4 9:0.939394 11:-1 
-1 1:1 2:-1 3:-1 4:1 5:-1 6:-1 7:-1 8:0.6 9:0.515152 11:-1 
-1 1:1 2:-1 3:-1 4:1 5:-1 6:-0.78 7:-1 8:0.4 9:0.69697 11:-1 
-1 1:1 2:-1 3:-1 4:1 5:-1 6:-0.66 7:-1 9:0.818182 11:-1 
-1 1:1 2:-1 3:-1 4:1 5:-1 6:0.52 7:-0.75 8:-1 9:-0.979798 11:-1 
-1 1:-1 2:-1 3:-1 4:-1 5:-1 6:-1 7:-1 8:-1 9:-1 11:-1 
-1 1:1 2:-1 3:1 4:1 5:-1 6:-1 7:-1 8:0.6 9:1 11:-1 
-1 1:1 2:-1 3:-1 4:1 5:-1 6:-1 7:-1 8:0.6 9:0.313131 11:-1 
-1 1:1 2:-1 3:1 4:1 5:-1 6:0.16 7:-1 8:-1 9:0.191919 11:-1 
-1 1:1 2:-1 3:-1 4:1 5:-1 6:-1 7:-1 8:0.4 9:0.858586 11:-1 
-1 1:1 2:-1 3:-1 4:1 5:-1 6:-1 7:-1 8:0.4 9:0.69697 11:-1 
-1 1:-1 2:-1 3:1 4:1 5:-1 6:-1 7:-1 8:0.6 9:0.131313 11:-1 
-0.8353625277638196 1:1 2:-1 3:1 4:1 5:-0.2 6:-1 7:-1 8:0.8 9:0.858586 11:-1 
-0.09436901162500541 1:1 2:0.0909091 3:-1 4:1 5:-1 6:-1 7:-1 8:0.6 9:0.575758 11:-1 
-1 1:1 2:-1 3:1 4:1 5:-1 6:-0.66 7:-1 8:0.6 9:0.010101 11:-1 
-1 1:1 2:-1 3:-1 4:1 5:-1 6:-0.06 7:-1 8:-1 9:-0.515152 11:-1 
-1 1:1 2:-1 3:-1 4:1 5:-1 6:-0.66 7:-1 8:0.4 9:0.474747 11:-1 
-1 1:1 2:-1 3:-1 4:1 5:-1 6:-1 7:-1 8:0.2 9:0.454545 11:-1 
-1 1:1 2:-1 3:-1 4:1 5:-1 6:-0.42 7:-1 8:-1 9:0.69697 11:-1 
-1 1:1 2:-1 3:-1 4:1 5:-1 6:-1 7:-1 8:0.4 9:0.636364 11:-1 
-1 1:1 2:-1 3:1 4:1 5:-1 6:0.04 7:-1 8:-1 9:-0.616162 11:-1 
-1 1:-1 2:-1 3:-1 4:-1 5:-1 6:-1 7:-1 8:-1 9:-1 11:-1 
-1 1:1 2:-1 3:-1 4:1 5:-1 6:-1 7:-1 9:0.89899 11:-1 
-1 1:-1 2:-1 3:-1 4:1 5:-0.6 6:-0.3 7:-1 8:-1 9:0.151515 11:-1 
-1 1:1 2:-1 3:-1 4:1 5:-1 6:-1 7:-1 8:0.8 9:0.0505051 11:-1 
-1 1:1 2:-1 3:1 4:1 5:-1 6:-1 7:-1 8:0.6 9:0.353535 11:-1 
-1 1:1 2:-1 3:1 4:-1 5:-1 6:-1 7:-1 8:-1 9:-1 11:-1 
-1 1:1 2:-1 3:-1 4:1 5:-1 6:-1 7:-1 8:-0.4 9:-0.959596 11:-1 
-1 1:1 2:-1 3:-1 4:1 5:-1 6:-1 7:-1 8:0.4 9:0.636364 11:-1 
-1 1:1 2:-1 3:-1 4:1 5:1 6:0.52 7:-1 8:-1 9:-0.959596 11:-1 
-1 1:1 2:-1 3:-1 4:1 5:-1 6:-1 7:-1 8:0.4 9:0.171717 11:-1 
-1 1:1 2:-1 3:-1 4:1 5:-1 6:-0.42 7:-1 8:-0.2 9:0.69697 11:-1 
-1 1:1 2:-1 3:1 4:1 5:-1 6:-1 7:-1 8:0.6 9:-0.0707071 11:-1 
-1 1:1 2:-1 3:1 4:1 5:-1 6:-1 7:-1 8:0.6 9:0.434343 11:-1 
-1 1:1 2:-1 3:1 4:1 5:-1 6:-1 7:-1 9:0.515152 11:-1 
-1 1:1 2:-1 3:-1 4:1 5:-1 6:-1 7:-1 8:0.6 9:-0.0909091 11:-1 
-1 1:1 2:-1 3:-1 4:1 5:-1 6:-0.66 7:-1 8:0.2 9:1 11:-1 
-1 1:1 2:-1 3:-1 4:1 5:-1 6:0.88 7:-0.75 8:-1 9:-0.959596 11:-1 
-1 1:1 2:-1 3:-1 4:1 5:-1 6:-0.66 7:-1 9:0.717172 11:-1 
-1 1:-1 2:-1 3:1 4:1 5:-1 6:-0.9 7:-1 8:0.4 9:1 11:-1 
-1 1:1 2:-1 3:-1 4:1 5:-1 6:0.52 7:-1 8:-1 9:-0.151515 11:-1 
-1 1:1 2:-1 3:1 4:1 5:-1 6:-1 7:-1 8:0.2 9:0.535354 11:-1 
-1 1:1 2:-1 3:-1 4:-1 5:-1 6:-1 7:-1 8:-1 9:-1 11:-1 
-1 1:-1 2:-1 3:1 4:1 5:-1 6:-0.9 7:-1 8:0.4 9:1 11:-1 
-1 1:1 2:-1 3:1 4:1 5:-1 6:-0.9 7:-1 8:0.4 9:1 11:-1 
-1 1:1 2:-1 3:1 4:1 5:-0.6 6:-1 7:-1 8:-1 9:0.59596 11:-1 
-1 1:1 2:-1 3:-1 4:1 5:-1 6:-0.66 7:-1 8:-0.2 9:0.979798 11:-1 
-1 1:1 2:-1 3:-1 4:1 5:-1 6:-1 7:-1 8:0.4 9:0.757576 11:-1 
-1 1:1 2:-1 3:-1 4:1 5:-1 6:-0.18 7:-1 8:-1 9:0.717172 11:-1 
-1 1:1 2:-1 3:1 4:1 5:-1 6:-0.42 7:-1 8:-0.2 9:-0.131313 11:-1 
-1 1:1 2:-1 3:-1 4:1 5:-1 6:-1 7:-1 8:0.6 9:0.818182 11:-1 
-1 1:1 2:-1 3:-1 4:1 5:-1 6:-0.06 7:-1 8:-1 9:0.494949 11:-1 
-1 1:1 2:-1 3:-1 4:1 5:-1 6:-1 7:-1 8:0.2 9:0.838384 11:-1 
-1 1:1 2:-1 3:1 4:1 5:-1 6:-1 7:-1 8:0.6 9:0.434343 11:-1 
-1 1:1 2:-1 3:-1 4:1 5:-1 6:-0.54 7:-1 8:-1 9:0.313131 11:-1 
-1 1:1 2:-1 3:-1 4:1 5:-1 6:-1 7:-1 8:0.6 9:0.656566 11:-1 
-1 1:1 2:-1 3:1 4:1 5:-1 6:-1 7:-1 8:-1 9:0.818182 11:-1 
-1 1:1 2:-1 3:1 4:1 5:-1 6:-1 7:-1 8:0.6 9:0.232323 11:-1 
-1 1:1 2:-1 3:1 4:1 5:-1 6:-1 7:-1 8:0.6 9:0.272727 11:-1 
-1 1:1 2:-1 3:-1 4:1 5:-1 6:-1 7:-1 8:0.4 9:0.676768 11:-1 
-1 1:1 2:-1 3:-1 4:-1 5:-1 6:-1 7:-1 8:-1 9:-1 11:-1 
-1 1:1 2:-1 3:-1 4:1 5:-1 6:-1 7:-1 8:0.6 9:0.0909091 11:-1 
-1 1:1 2:-1 3:-1 4:1 5:-1 6:-1 7:-1 8:0.6 9:0.393939 11:-1 
-1 1:1 2:-1 3:-1 4:1 5:-1 6:0.16 7:-1 8:-1 9:-0.292929 11:-1 
-1 1:1 2:-1 3:-1 4:-1 5:-1 6:-1 7:-1 8:-1 9:-1 11:-1 
-1 1:1 2:-1 3:1 4:1 5:-0.2 6:-0.3 7:-0.75 8:-0.2 9:-0.555556 11:1 
-1 1:1 2:-1 3:1 4:1 5:-1 6:-1 7:-1 8:0.6 9:1 11:-1 
-1 1:1 2:-1 3:-1 4:1 5:-1 6:-0.54 7:-1 8:0.4 9:0.414141 11:-1 
-1 1:1 2:-1 3:-1 4:1 5:-1 6:-0.66 7:-1 8:0.2 9:1 11:-1 
-1 1:1 2:-1 3:1 4:1 5:-1 6:-1 7:-1 8:0.6 9:1 11:-1 
-1 1:1 2:-1 3:-1 4:1 5:-1 6:-1 7:-1 9:-0.111111 11:-1 
-1 1:1 2:-1 3:1 4:1 5:-1 6:-1 7:-1 8:0.6 9:-0.010101 11:-1 
-1 1:1 2:-1 3:-1 4:1 5:-1 6:-1 7:-1 8:0.6 9:0.939394 11:-1 
-1 1:-1 2:-1 3:-1 4:1 5:-1 6:-1 7:-1 8:0.2 9:0.676768 11:-1 
-1 1:1 2:-1 3:1 4:1 5:-1 6:-0.9 7:-1 8:0.4 9:0.939394 11:-1 
-1 1:1 2:-1 3:-1 4:1 5:-1 6:-1 7:-1 9:0.636364 11:-1 
-1 1:1 2:-1 3:-1 4:1 5:-1 6:-0.66 7:-0.75 9:0.818182 11:-1 
-1 1:1 2:-1 3:-1 4:-1 5:-1 6:-1 7:-1 8:-1 9:-1 11:-1 
-1 1:1 2:-1 3:1 4:-1 5:-1 6:-1 7:-1 8:-1 9:-1 11:-1 
-1 1:1 2:-1 3:1 4:1 5:-1 6:-1 7:-1 8:0.4 9:0.979798 11:-1 
-1 1:1 2:-1 3:-1 4:1 5:-1 6:-1 7:-1 8:0.6 9:0.878788 11:-1 
-1 1:-1 2:-1 3:1 4:1 5:-1 6:-1 7:-1 8:0.8 9:0.0505051 11:-1 
-1 1:1 2:-1 3:1 4:1 5:-1 6:-0.54 7:-1 8:-0.4 9:0.515152 11:-1 
-1 1:1 2:-1 3:-1 4:1 5:-1 6:-0.54 7:-1 8:0.2 9:0.919192 11:-1 
-1 1:1 2:-1 3:1 4:1 5:-1 6:-1 7:-1 8:0.6 9:1 11:-1 
-1 1:1 2:-1 3:-1 4:-1 5:-1 6:-1 7:-1 8:-1 9:-1 11:-1 
-1 1:1 2:-1 3:-1 4:1 5:-1 6:-1 7:-1 8:0.6 9:0.959596 11:-1 
-1 1:1 2:-1 3:1 4:1 5:-1 6:0.52 7:-1 8:-1 9:-0.979798 11:-1 
-1 1:1 2:-1 3:-1 4:1 5:-1 6:-0.9 7:-1 9:0.717172 11:-1 
-1 1:-1 2:-1 3:-1 4:1 5:-1 6:-1 7:-1 8:0.6 9:0.979798 11:-1 
-1 1:1 2:-1 3:-1 4:1 5:1 6:0.88 7:-1 8:-1 9:-1 11:-1 
-1 1:1 2:-1 3:1 4:1 5:-1 6:-1 7:-1 8:0.6 9:0.454545 11:-1 
-1 1:1 2:-1 3:-1 4:-1 5:-1 6:-1 7:-1 8:-1 9:-1 11:-1 
-1 1:1 2:-1 3:-1 4:1 5:-1 6:-0.66 7:-1 8:0.2 9:-0.292929 11:-1 
-1 1:1 2:-1 3:1 4:1 5:-1 6:0.76 7:-0.75 8:-1 9:-0.717172 11:-1 
-1 1:1 2:-1 3:1 4:1 5:-1 6:-0.66 7:-1 8:-0.4 9:-0.111111 11:-1 
-1 1:1 2:-1 3:-1 4:-1 5:-1 6:-1 7:-1 8:-1 9:-1 11:-1 
-1 1:1 2:-1 3:1 4:1 5:-0.2 6:0.4 7:-0.75 8:-1 9:-1 11:-1 
-1 1:1 2:-1 3:1 4:1 5:-1 6:-1 7:-1 8:0.4 9:-0.111111 11:-1 
-1 1:1 2:-1 3:1 4:1 5:-1 6:-1 7:-1 8:0.6 9:0.454545 11:-1 
-1 1:1 2:-1 3:-1 4:1 5:-1 6:-1 7:-1 8:0.4 9:1 11:-1 
-1 1:1 2:-1 3:1 4:1 5:-1 6:-0.54 7:-1 9:0.79798 11:-1 
-1 1:1 2:-1 3:-1 4:1 5:-1 6:-1 7:-1 8:0.4 9:0.818182 11:-1 
-1 1:1 2:-1 3:-1 4:1 5:-1 6:-1 7:-1 8:0.2 9:1 11:-1 
-1 1:1 2:-1 3:-1 4:1 5:-1 6:0.28 7:-1 8:-1 9:-1 11:-1 
-1 1:-1 2:-1 3:-1 4:1 5:-1 6:-1 7:-1 8:0.2 9:0.272727 11:-1 
-1 1:-1 2:-1 3:-1 4:1 5:-1 6:-0.66 7:-1 8:0.2 9:0.353535 11:-1 
-1 1:1 2:-1 3:-1 4:1 5:-1 6:-1 7:-0.75 8:0.4 9:0.414141 11:-1 
-1 1:1 2:-1 3:-1 4:1 5:-1 6:-1 7:-1 8:0.6 9:0.919192 11:-1 
-1 1:1 2:-1 3:1 4:1 5:1 6:1 7:-1 8:-1 9:-1 11:-1 
-1 1:1 2:-1 3:1 4:1 5:-1 6:-0.78 7:-1 8:0.2 9:0.717172 11:-1 
-1 1:1 2:-1 3:1 4:1 5:-1 6:-1 7:-1 9:0.59596 11:-1 
-1 1:1 2:-1 3:1 4:1 5:-1 6:-0.42 7:-1 9:0.494949 11:-1 
-1 1:1 2:-1 3:-1 4:1 5:-1 6:0.88 7:-1 8:-1 9:-1 11:-1 
-1 1:1 2:-1 3:1 4:1 5:-1 6:-1 7:-1 8:0.6 9:0.393939 11:-1 
-1 1:1 2:-1 3:-1 4:1 5:-1 6:-1 7:-1 8:0.4 9:0.0505051 11:-1 
-1 1:1 2:-1 3:-1 4:1 5:-1 6:-1 7:-1 8:-0.4 9:-0.818182 11:-1 
-1 1:1 2:-1 3:-1 4:1 5:-1 6:0.52 7:-1 8:-1 9:-0.0707071 11:-1 
-1 1:1 2:-1 3:1 4:1 5:-1 6:-1 7:-1 8:-1 9:0.575758 11:-1 
-1 1:1 2:-1 3:-1 4:1 5:1 6:0.52 7:-1 8:-1 9:-1 11:-1 
-0.7678077086084385 1:1 2:-1 3:-1 4:1 5:-1 6:-1 7:-1 8:0.6 9:0.979798 11:-1 
-1 1:1 2:-1 3:-1 4:1 5:-1 6:0.52 7:-1 8:-1 9:-1 11:-1 
-1 1:1 2:-1 3:1 4:1 5:-1 6:-1 7:-0.75 8:0.2 9:0.737374 11:-1 
-1 1:1 2:-1 3:1 4:1 5:-1 6:-0.66 7:-1 8:0.6 9:0.979798 11:-1 
-1 1:1 2:-1 3:-1 4:-1 5:-1 6:-1 7:-1 8:-1 9:-1 11:-1 
-1 1:1 2:-1 3:-1 4:1 5:-1 6:-0.42 7:-0.75 8:-1 9:-0.353535 11:-1 
-1 1:1 2:-1 3:-1 4:1 5:-1 6:-1 7:-1 9:0.111111 11:-1 
-1 1:1 2:-1 3:1 4:1 5:-1 6:-1 7:-1 8:0.4 9:0.616162 11:-1 
-1 1:1 2:-1 3:-1 4:1 5:-0.2 6:-0.18 7:-0.75 8:-1 9:-0.292929 11:1 
-1 1:-1 2:-1 3:-1 4:-1 5:-1 6:-1 7:-1 8:-1 9:-1 11:-1 
-1 1:1 2:-1 3:-1 4:1 5:-1 6:0.28 7:-1 8:-1 9:-0.777778 11:-1 
-1 1:-1 2:-1 3:-1 4:1 5:-1 6:-1 7:-1 8:0.8 9:0.939394 11:-1 
-1 1:1 2:-1 3:-1 4:1 5:-1 6:0.04 7:-1 8:-1 9:-0.292929 11:-1 
-1 1:1 2:-1 3:-1 4:1 5:-0.2 6:-0.18 7:-1 8:-0.4 9:0.414141 11:-1 
-1 1:1 2:-1 3:1 4:1 5:-1 6:-0.66 7:-0.75 9:0.232323 11:-1 
-1 1:1 2:-1 3:-1 4:1 5:-1 6:1 7:-1 8:-1 9:-0.939394 11:-1 
-1 1:-1 2:-1 3:1 4:1 5:-1 6:-1 7:-1 8:-1 9:0.414141 11:-1 
-1 1:1 2:-1 3:1 4:1 5:-1 6:-1 7:-1 8:0.6 9:0.030303 11:-1 
-0.1222580859170158 1:1 2:-1 3:1 4:1 5:-1 6:-1 7:-1 8:0.6 9:0.555556 11:-1 
-1 1:1 2:-1 3:-1 4:1 5:-1 6:-1 7:-1 8:0.6 9:0.919192 11:-1 
-1 1:1 2:-1 3:-1 4:1 5:-1 6:-1 7:-1 8:-0.2 9:-0.191919 11:-1 
-1 1:1 2:-1 3:-1 4:1 5:-1 6:-0.54 7:-1 8:-1 9:0.373737 11:-1 
-1 1:1 2:-1 3:1 4:-1 5:-1 6:-1 7:-1 8:-1 9:-1 11:-1 
-1 1:-1 2:-1 3:1 4:-1 5:-1 6:-1 7:-1 8:-1 9:-1 11:-1 
-1 1:1 2:-1 3:1 4:1 5:-1 6:-0.78 7:-1 8:0.4 9:0.414141 11:-1 
-1 1:1 2:-1 3:-1 4:-1 5:-1 6:-1 7:-1 8:-1 9:-1 11:-1 
-1 1:1 2:-1 3:-1 4:1 5:-1 6:-1 7:-1 8:0.4 9:0.777778 11:-1 
-1 1:1 2:-1 3:1 4:1 5:-1 6:0.04 7:-1 8:-1 9:-0.0707071 11:-1 
-1 1:1 2:-1 3:1 4:1 5:-1 6:-0.9 7:-0.75 8:0.4 9:1 11:-1 
-1 1:1 2:-1 3:-1 4:1 5:-1 6:-1 7:-1 8:0.6 9:0.292929 11:-1 
-1 1:1 2:-1 3:-1 4:1 5:-1 6:-0.9 7:-1 8:-0.2 9:0.89899 11:-1 
-1 1:1 2:-1 3:1 4:1 5:-0.2 6:0.28 7:-1 8:-1 9:-0.111111 11:1 
-1 1:1 2:-1 3:1 4:1 5:-1 6:-1 7:-1 8:0.4 9:0.919192 11:-1 
-1 1:1 2:-1 3:1 4:1 5:-1 6:-0.9 7:-1 8:0.2 9:0.838384 11:-1 
-1 1:1 2:-1 3:-1 4:1 5:-1 6:0.76 7:-1 8:-1 9:-0.959596 11:-1 
-1 1:1 2:-1 3:-1 4:1 5:-1 6:-0.9 7:-1 8:0.2 9:0.919192 11:-1 
-1 1:1 2:-1 3:1 4:-1 5:-1 6:-1 7:-1 8:-1 9:-1 11:-1 
-1 1:1 2:-1 3:1 4:1 5:-1 6:-1 7:-1 8:0.4 9:1 11:-1 
-1 1:1 2:-1 3:1 4:1 5:-1 6:-1 7:-1 8:0.4 9:0.858586 11:-1 
-1 1:1 2:-1 3:-1 4:1 5:-1 6:-1 7:-1 8:0.4 9:0.757576 11:-1 
-1 1:-1 2:-1 3:-1 4:1 5:-1 6:-0.42 7:-1 8:-0.4 9:-0.131313 11:-1 
-1 1:1 2:-1 3:-1 4:1 5:-1 6:-1 7:-1 8:0.6 9:0.272727 11:-1 
-1 1:1 2:-1 3:-1 4:1 5:-1 6:-1 7:-1 8:0.6 9:0.939394 11:-1 
-1 1:1 2:-1 3:-1 4:1 5:-1 6:-1 7:-1 8:0.6 9:0.717172 11:-1 
-1 1:1 2:-1 3:1 4:1 5:-1 6:-0.9 7:-1 8:0.4 9:0.818182 11:-1 
-1 1:-1 2:-1 3:-1 4:-1 5:-1 6:-1 7:-1 8:-1 9:-1 11:-1 
-1 1:-1 2:-1 3:-1 4:-1 5:-1 6:-1 7:-1 8:-1 9:-1 11:-1 
-1 1:1 2:-1 3:1 4:1 5:-1 6:-1 7:-1 8:0.4 9:0.151515 11:-1 
-1 1:1 2:-1 3:1 4:1 5:-1 6:0.52 7:-1 8:-1 9:-0.878788 11:-1 
-1 1:1 2:-1 3:-1 4:1 5:-1 6:-1 7:-1 8:0.4 9:0.474747 11:-1 
-1 1:1 2:-1 3:-1 4:1 5:-1 6:-0.66 7:-1 9:0.89899 11:-1 
-1 1:1 2:-1 3:1 4:1 5:-1 6:-1 7:-1 8:0.6 9:0.555556 11:-1 
-1 1:1 2:-1 3:-1 4:1 5:-1 6:-1 7:-1 8:0.6 9:0.111111 11:-1 
-1 1:1 2:-1 3:-1 4:1 5:-1 6:-1 7:-1 8:0.6 9:0.454545 11:-1 
-1 1:1 2:-1 3:1 4:1 5:-1 6:-1 7:-1 8:0.2 9:0.393939 11:-1 
-1 1:1 2:-1 3:-1 4:1 5:-1 6:-1 7:-1 8:0.4 9:0.292929 11:-1 
-1 1:1 2:-1 3:1 4:1 5:-1 6:-0.66 7:-1 8:0.6 9:0.979798 11:-1 
-1 1:1 2:-1 3:-1 4:1 5:-1 6:-1 7:-1 8:0.6 9:0.737374 11:-1 
-1 1:1 2:-1 3:1 4:1 5:-1 6:-1 7:-1 8:0.2 9:0.59596 11:-1 
-1 1:1 2:-1 3:-1 4:1 5:-0.2 6:-1 7:-1 8:0.2 9:0.737374 11:-1 
-1 1:1 2:-1 3:-1 4:1 5:-1 6:-1 7:-1 8:0.2 9:0.030303 11:-1 
-1 1:1 2:-1 3:-1 4:1 5:-1 6:-1 7:-1 8:-1 9:-0.959596 11:-1 
-1 1:1 2:-1 3:1 4:1 5:-1 6:-1 7:-1 8:0.6 9:0.434343 11:-1 
-1 1:1 2:-1 3:-1 4:1 5:-1 6:0.64 7:-1 8:-1 9:-1 11:-1 
-1 1:1 2:-1 3:1 4:1 5:-1 6:-1 7:-1 8:0.6 9:0.0909091 11:-1 
-1 1:1 2:-1 3:1 4:1 5:-1 6:-1 7:-1 8:-0.2 9:0.777778 11:-1 
-1 1:1 2:-1 3:-1 4:1 5:-1 6:-1 7:-1 8:0.6 9:0.434343 11:-1 
-1 1:1 2:-1 3:-1 4:-1 5:-1 6:-1 7:-1 8:-1 9:-1 11:-1 
-1 1:-1 2:-1 3:-1 4:-1 5:-1 6:-1 7:-1 8:-1 9:-1 11:-1 
-1 1:-1 2:-1 3:-1 4:1 5:-1 6:1 7:-1 8:-1 9:-1 11:-0.333333 
-1 1:1 2:-1 3:1 4:1 5:-1 6:-1 7:-1 8:0.6 9:1 11:-1 
-1 1:-1 2:-1 3:-1 4:1 5:-1 6:-1 7:-1 8:0.6 9:0.979798 11:-1 
-1 1:1 2:-1 3:-1 4:1 5:-1 6:-1 7:-1 8:0.6 9:0.919192 11:-1 
-1 1:1 2:-1 3:-1 4:-1 5:-1 6:-1 7:-1 8:-1 9:-1 11:-1 
-1 1:1 2:-1 3:-1 4:1 5:-1 6:-1 7:-1 8:0.2 9:0.131313 11:-1 
-1 1:-1 2:-1 3:-1 4:1 5:-1 6:-1 7:-1 8:0.8 9:1 11:-1 
-1 1:1 2:-1 3:-1 4:1 5:-1 6:-1 7:-1 8:0.4 9:0.878788 11:-1 
-1 1:-1 2:-1 3:-1 4:1 5:-1 6:-1 7:-1 8:0.4 9:0.717172 11:-1 
-1 1:-1 2:-1 3:1 4:1 5:-1 6:-1 7:-1 8:0.8 9:0.676768 11:-1 
-1 1:-1 2:-1 3:1 4:1 5:-1 6:-1 7:-1 8:0.8 9:0.656566 11:-1 
-1 1:-1 2:-1 3:-1 4:1 5:-1 6:-1 7:-1 8:-0.4 9:1 11:-1 
-1 1:1 2:-1 3:-1 4:-1 5:-1 6:-1 7:-1 8:-1 9:-1 11:-1 
-1 1:1 2:-1 3:1 4:-1 5:-1 6:-1 7:-1 8:-1 9:-1 11:-1 
-1 1:1 2:-1 3:1 4:1 5:-1 6:-1 7:-1 8:-1 9:-0.858586 11:-1 
-1 1:1 2:-1 3:-1 4:-1 5:-1 6:-1 7:-1 8:-1 9:-1 11:-1 
-1 1:-1 2:-1 3:-1 4:1 5:-1 6:-1 7:-1 8:0.8 9:0.939394 11:-1 
-1 1:1 2:-1 3:-1 4:-1 5:-1 6:-1 7:-1 8:-1 9:-1 11:-1 
-1 1:1 2:-1 3:-1 4:1 5:-1 6:-1 7:-1 8:0.6 9:0.717172 11:-1 
-1 1:1 2:-1 3:-1 4:1 5:-1 6:-1 7:-1 8:0.6 9:0.636364 11:-1 
-1 1:1 2:-1 3:-1 4:1 5:-1 6:-1 7:-1 8:0.6 9:0.191919 11:-1 
-1 1:1 2:-1 3:1 4:1 5:-1 6:-1 7:-1 8:0.6 9:1 11:-1 
-1 1:1 2:-1 3:1 4:1 5:-1 6:-1 7:-1 8:0.4 9:1 11:-1 
-1 1:1 2:-1 3:-1 4:1 5:-1 6:-1 7:-1 8:0.4 9:0.777778 11:-1 
-1 1:1 2:-1 3:1 4:1 5:-1 6:-0.66 7:-1 8:-1 9:0.414141 11:-1 
-1 1:1 2:-1 3:-1 4:1 5:-1 6:-1 7:-1 8:0.2 9:1 11:-1 
-1 1:1 2:-1 3:-1 4:1 5:-1 6:-0.06 7:-1 8:-0.4 9:0.979798 11:-1 
-0.1803487818432928 1:-1 2:-1 3:1 4:1 5:-1 6:-1 7:-1 8:0.8 9:0.717172 11:-1 
-1 1:1 2:-1 3:1 4:1 5:-1 6:-1 7:-1 8:0.6 9:0.434343 11:-1 
-1 1:1 2:-1 3:-1 4:1 5:-1 6:-0.9 7:-1 8:0.6 9:0.939394 11:-1 
-1 1:1 2:-1 3:1 4:-1 5:-1 6:-1 7:-1 8:-1 9:-1 11:-1 
-1 1:1 2:-1 3:1 4:1 5:-1 6:-0.66 7:-1 8:0.4 9:0.69697 11:-1 
-1 1:1 2:-1 3:-1 4:1 5:-1 6:-1 7:-1 8:0.2 9:0.494949 11:-1 
-1 1:1 2:-1 3:-1 4:1 5:-1 6:0.64 7:-1 8:-1 9:-0.636364 11:-1 
-1 1:1 2:-1 3:-1 4:1 5:-1 6:-1 7:-1 8:0.6 9:0.151515 11:-1 
-1 1:1 2:-1 3:-1 4:-1 5:-1 6:-1 7:-1 8:-1 9:-1 11:-1 
-1 1:1 2:-1 3:1 4:1 5:-1 6:-1 7:-1 8:0.6 9:0.313131 11:-1 
-1 1:-1 2:-1 3:1 4:-1 5:-1 6:-1 7:-1 8:-1 9:-1 11:-1 
-1 1:1 2:-1 3:1 4:1 5:-1 6:-0.9 7:-1 8:-0.4 9:0.919192 11:-1 
-1 1:1 2:-1 3:1 4:-1 5:-1 6:-1 7:-1 8:-1 9:-1 11:-1 
-1 1:1 2:-1 3:-1 4:1 5:-1 6:-1 7:-1 8:0.6 9:0.515152 11:-1 
-1 1:1 2:-1 3:1 4:1 5:-1 6:-1 7:-1 9:1 11:-1 
-1 1:1 2:-1 3:1 4:1 5:1 6:0.52 7:-1 8:-1 9:-0.979798 11:-1 
-1 1:-1 2:-1 3:-1 4:-1 5:-1 6:-1 7:-1 8:-1 9:-1 11:-1 
-1 1:1 2:-1 3:1 4:1 5:-1 6:-0.66 7:-1 8:0.6 9:0.919192 11:-1 
-1 1:1 2:-1 3:1 4:1 5:-1 6:-1 7:-1 8:0.6 9:1 11:-1 
-1 1:1 2:-1 3:1 4:1 5:-1 6:-1 7:-1 8:0.6 9:0.979798 11:-1 
-1 1:1 2:-1 3:-1 4:1 5:-1 6:-1 7:-1 8:0.6 9:0.878788 11:-1 
-1 1:1 2:-1 3:-1 4:1 5:-1 6:-1 7:-1 8:0.6 9:-0.0505051 11:-1 
-1 1:1 2:-1 3:-1 4:1 5:-1 6:1 7:-1 8:-1 9:-0.979798 11:-1 
-1 1:-1 2:-1 3:1 4:1 5:-1 6:-1 7:-1 8:0.4 9:0.777778 11:-1 
-1 1:1 2:-1 3:-1 4:1 5:-1 6:-1 7:-1 8:0.6 9:0.818182 11:-1 
-1 1:1 2:-1 3:-1 4:1 5:-1 6:-0.3 7:-1 8:-1 9:0.212121 11:-1 
-1 1:1 2:-1 3:-1 4:1 5:-1 6:-1 7:-1 8:0.6 9:0.878788 11:-1 
-1 1:1 2:-1 3:-1 4:1 5:-1 6:-1 7:-1 9:0.979798 11:-1 
-1 1:1 2:-1 3:1 4:1 5:-1 6:-1 7:-1 8:0.2 9:0.858586 11:-1 
-1 1:1 2:-1 3:-1 4:1 5:-1 6:-0.3 7:-1 8:-0.2 9:0.131313 11:-1 
-1 1:1 2:-1 3:-1 4:1 5:-1 6:0.28 7:-1 8:-1 9:-1 11:-1 
-1 1:-1 2:-1 3:-1 4:-1 5:-1 6:-1 7:-1 8:-1 9:-1 11:-1 
-1 1:1 2:-1 3:-1 4:1 5:-1 6:-1 7:-1 8:0.6 9:0.838384 11:-1 
-1 1:1 2:-1 3:1 4:1 5:-1 6:-0.54 7:-1 8:0.6 9:0.939394 11:-1 
-1 1:-1 2:-1 3:-1 4:1 5:-1 6:-0.06 7:-1 8:-0.4 9:1 11:-1 
-1 1:1 2:-1 3:-1 4:1 5:-1 6:0.52 7:-1 8:-1 9:-0.454545 11:-1 
-1 1:1 2:-1 3:-1 4:1 5:-1 6:0.64 7:-1 8:-1 9:-1 11:-1 
-1 1:1 2:-1 3:-1 4:1 5:-1 6:-0.18 7:-1 8:0.4 9:-0.111111 11:-1 
-1 1:1 2:-1 3:-1 4:1 5:-1 6:0.16 7:-1 8:-1 9:0.434343 11:-1 
-1 1:1 2:-1 3:1 4:1 5:-1 6:0.28 7:-1 8:-1 9:-1 11:-1 
-1 1:1 2:-1 3:-1 4:1 5:-1 6:-0.78 7:-1 8:-1 9:0.151515 11:-1 
-1 1:-1 2:-1 3:-1 4:-1 5:-1 6:-1 7:-1 8:-1 9:-1 11:-1 
-1 1:1 2:-1 3:-1 4:1 5:-1 6:-1 7:-1 8:0.4 9:1 11:-1 
-1 1:1 2:-1 3:-1 4:1 5:-1 6:-1 7:-1 8:0.4 9:1 11:-1 
-1 1:1 2:-1 3:-1 4:1 5:-1 6:-0.78 7:-1 8:-1 9:0.313131 11:-1 
-1 1:1 2:-1 3:-1 4:1 5:-1 6:-1 7:-1 8:-0.4 9:-0.0909091 11:-1 
-1 1:1 2:-1 3:-1 4:1 5:-1 6:-0.06 7:-0.75 8:-1 9:-0.010101 11:-1 
-1 1:1 2:-1 3:-1 4:1 5:-1 6:-1 7:-1 8:0.6 9:0.636364 11:-1 
-1 1:-1 2:-1 3:-1 4:1 5:-1 6:0.16 7:-1 8:-1 9:0.0909091 11:-1 
-1 1:1 2:-1 3:-1 4:1 5:-1 6:-1 7:-1 9:0.69697 11:-1 
-1 1:1 2:-1 3:1 4:1 5:1 6:0.88 7:-1 8:-1 9:-1 11:-1 
-1 1:1 2:-1 3:-1 4:1 5:-0.6 6:-1 7:-1 8:-1 9:0.959596 11:-1 
-1 1:1 2:-1 3:1 4:1 5:-1 6:-1 7:-1 8:0.4 9:1 11:-1 
-1 1:1 2:-1 3:-1 4:1 5:1 6:0.76 7:-1 8:-1 9:-0.979798 11:-1 
-1 1:-1 2:-1 3:1 4:1 5:-1 6:1 7:-1 8:-1 9:-1 11:0.333333 
-1 1:1 2:-1 3:1 4:1 5:-1 6:-1 7:-1 8:0.6 9:1 11:-1 
-1 1:-1 2:-1 3:-1 4:1 5:-1 6:-1 7:-1 8:0.6 9:0.979798 11:-1 
-1 1:1 2:-1 3:1 4:1 5:-1 6:-1 7:-1 8:0.6 9:-0.0707071 11:-1 
-1 1:1 2:-1 3:1 4:1 5:-1 6:-1 7:-1 8:0.6 9:1 11:-1 
-1 1:1 2:-1 3:-1 4:-1 5:-1 6:-1 7:-1 8:-1 9:-1 11:-1 
-1 1:1 2:-1 3:-1 4:1 5:-1 6:-0.9 7:-1 8:-1 9:0.959596 11:-1 
-1 1:1 2:-1 3:-1 4:1 5:-1 6:-1 7:-1 8:0.4 9:0.979798 11:-1 
-1 1:1 2:-1 3:-1 4:1 5:-1 6:0.52 7:-0.75 8:-1 9:-0.919192 11:-1 
-1 1:1 2:-1 3:1 4:1 5:-1 6:-0.66 7:-1 8:0.2 9:0.818182 11:-1 
-1 1:-1 2:-1 3:-1 4:1 5:-1 6:-1 7:-1 8:0.8 9:0.676768 11:-1 
-1 1:1 2:-1 3:1 4:1 5:-1 6:0.64 7:-1 8:-1 9:-1 11:-1 
-1 1:1 2:-1 3:1 4:1 5:-1 6:-0.9 7:-1 8:0.2 9:0.838384 11:-1 
-1 1:1 2:-1 3:-1 4:1 5:-1 6:-1 7:-1 8:0.6 9:0.292929 11:-1 
-1 1:1 2:-1 3:1 4:-1 5:-1 6:-1 7:-1 8:-1 9:-1 11:-1 
-1 1:-1 2:-1 3:-1 4:1 5:-1 6:-0.3 7:-1 9:-0.59596 11:-1 
-1 1:1 2:-1 3:1 4:1 5:-1 6:0.52 7:-1 8:-1 9:-1 11:-1 
-1 1:1 2:-1 3:1 4:1 5:-1 6:-0.9 7:-1 8:0.2 9:0.575758 11:-1 
-1 1:1 2:-1 3:-1 4:1 5:-1 6:-0.06 7:-1 8:-1 9:0.292929 11:-1 
-1 1:1 2:-1 3:1 4:1 5:-1 6:-1 7:-1 8:0.2 9:0.636364 11:-1 
-1 1:1 2:-1 3:-1 4:1 5:-1 6:-1 7:-1 8:0.4 9:0.878788 11:-1 
-1 1:1 2:-1 3:1 4:1 5:-1 6:0.28 7:-1 8:-1 9:-1 11:-1 
-1 1:1 2:-1 3:-1 4:-1 5:-1 6:-1 7:-1 8:-1 9:-1 11:-1 
-1 1:-1 2:-1 3:1 4:1 5:-1 6:-0.9 7:-1 8:0.2 9:0.373737 11:-1 
-1 1:1 2:-1 3:-1 4:1 5:-1 6:-1 7:-1 8:0.2 9:0.575758 11:-1 
-1 1:1 2:-1 3:-1 4:1 5:-1 6:-0.9 7:-1 8:0.6 9:0.232323 11:-1 
-1 1:1 2:-1 3:1 4:1 5:-1 6:-1 7:-1 8:0.6 9:0.0505051 11:-1 
-1 1:1 2:-1 3:-1 4:-1 5:-1 6:-1 7:-1 8:-1 9:-1 11:-1 
-1 1:1 2:-1 3:-1 4:1 5:-1 6:-1 7:-1 9:0.191919 11:-1 
-1 1:-1 2:-1 3:1 4:1 5:-1 6:-1 7:-1 8:0.4 9:1 11:-1 
-1 1:1 2:-1 3:-1 4:1 5:-1 6:-1 7:-1 8:0.4 9:0.858586 11:-1 
-1 1:1 2:-1 3:-1 4:-1 5:-1 6:-1 7:-1 8:-1 9:-1 11:-1 
-1 1:1 2:-1 3:-1 4:1 5:-1 6:-1 7:-1 8:-1 9:0.838384 11:-1 
-1 1:1 2:-1 3:-1 4:1 5:-1 6:-0.66 7:-1 8:0.4 9:1 11:-1 
-1 1:1 2:-1 3:1 4:1 5:-1 6:-1 7:-1 9:0.676768 11:-1 
-1 1:1 2:-1 3:-1 4:1 5:-1 6:-0.54 7:-1 8:-0.2 9:1 11:-1 
-1 1:1 2:-1 3:-1 4:1 5:-1 6:-1 7:-1 8:0.4 9:0.474747 11:-1 
-1 1:-1 2:-1 3:-1 4:-1 5:-1 6:-1 7:-1 8:-1 9:-1 11:-1 
-1 1:1 2:-1 3:-1 4:1 5:-1 6:-0.9 7:-1 8:0.4 9:1 11:-1 
-1 1:1 2:-1 3:-1 4:-1 5:-1 6:-1 7:-1 8:-1 9:-1 11:-1 
-1 1:1 2:-1 3:1 4:1 5:-1 6:-0.66 7:-1 8:0.8 9:0.79798 11:-1 
-1 1:1 2:-1 3:1 4:1 5:-1 6:-0.54 7:-1 8:-1 9:0.959596 11:-1 
-1 1:1 2:-1 3:1 4:1 5:-1 6:-1 7:-1 8:0.2 9:0.717172 11:-1 
-1 1:1 2:-1 3:1 4:1 5:-1 6:-0.66 7:-1 8:0.4 9:0.818182 11:-1 
-1 1:-1 2:-1 3:1 4:1 5:-1 6:-1 7:-1 8:0.8 9:0.979798 11:-1 
-1 1:1 2:-1 3:1 4:1 5:-1 6:-1 7:-1 8:0.6 9:0.515152 11:-1 
-1 1:1 2:-1 3:-1 4:1 5:-1 6:-1 7:-1 8:0.6 9:0.575758 11:-1 
-1 1:-1 2:-1 3:-1 4:-1 5:-1 6:-1 7:-1 8:-1 9:-1 11:-1 
-1 1:1 2:-1 3:-1 4:1 5:-1 6:-0.66 7:-1 8:0.2 9:0.979798 11:-1 
-1 1:1 2:-1 3:-1 4:-1 5:-1 6:-1 7:-1 8:-1 9:-1 11:-1 
-1 1:-1 2:-1 3:-1 4:-1 5:-1 6:-1 7:-1 8:-1 9:-1 11:-1 
-1 1:1 2:-1 3:1 4:1 5:-1 6:-1 7:-1 8:0.6 9:0.414141 11:-1 
-1 1:1 2:-1 3:-1 4:-1 5:-1 6:-1 7:-1 8:-1 9:-1 11:-1 
-1 1:1 2:-1 3:-1 4:1 5:1 6:0.64 7:-1 8:-1 9:-1 11:-1 
-1 1:1 2:-1 3:1 4:1 5:-1 6:-1 7:-1 8:0.6 9:1 11:-1 
-1 1:1 2:-1 3:-1 4:1 5:-1 6:-1 7:-1 8:0.6 9:0.636364 11:-1 
-1 1:1 2:-1 3:1 4:1 5:-1 6:-1 7:-1 8:0.4 9:0.030303 11:-1 
-1 1:1 2:-1 3:-1 4:1 5:-1 6:-0.66 7:-1 9:0.979798 11:-1 
-1 1:1 2:-1 3:-1 4:1 5:-1 6:-1 7:-0.75 8:0.4 9:0.79798 11:-1 
-1 1:1 2:-1 3:-1 4:1 5:-1 6:-0.54 7:-1 8:-0.4 9:0.89899 11:-1 
-1 1:-1 2:-1 3:1 4:1 5:-1 6:-0.06 7:-1 8:-1 9:0.373737 11:-1 
-1 1:1 2:-1 3:1 4:1 5:-1 6:-0.9 7:-1 9:0.737374 11:-1 
-1 1:1 2:-1 3:-1 4:1 5:-1 6:0.28 7:-1 8:-1 9:0.232323 11:-1 
